been 0.0022472746204584837 -0.11009329557418823 0.17154653370380402 -0.0189959779381752 -0.0337129645049572 0.10950353741645813 -0.3105846643447876 0.24079816043376923 0.03242427483201027 0.08697837591171265 0.013217291794717312 -0.05234658345580101 -0.006193474400788546 -0.10959047079086304 -0.04088851064443588 -0.16444788873195648 0.042209554463624954 0.12638020515441895 0.06900469958782196 -0.10692597925662994 0.0685681402683258 -0.06666514277458191 0.17710444331169128 -0.034288160502910614 0.12894266843795776 -0.04433128610253334 -0.09204328805208206 0.05496296286582947 -0.029290394857525826 0.007976628839969635 -0.17532286047935486 -0.1531040072441101 -0.006692372262477875 0.22810685634613037 -0.10414879769086838 -0.025789884850382805 0.05230213329195976 0.030438153073191643 -0.034337930381298065 0.06174363195896149 -0.0626540333032608 -0.08263374865055084 -0.0058807022869586945 0.031507737934589386 -0.052919741719961166 -0.15650227665901184 -0.06267250329256058 0.016485821455717087 0.05915552377700806 -0.13011334836483002 -0.1304480880498886 -0.06524424254894257 0.010022708214819431 -0.22572608292102814 0.009319089353084564 -0.0430101715028286 -0.17214761674404144 -0.18795093894004822 -0.10379932820796967 -0.07299522310495377 -0.04351673647761345 0.006099410355091095 0.07607672363519669 0.009511196054518223 -0.17905649542808533 0.02138955518603325 0.02090812660753727 0.12607979774475098 -0.06389535963535309 8.245555218309164E-4 -0.08711151033639908 -0.011607697233557701 0.08672390133142471 -0.06620269268751144 -0.07958958297967911 0.04170149937272072 -0.11196638643741608 -0.10553345084190369 0.04620775207877159 0.18194860219955444 0.07335282862186432 -0.10280351340770721 0.09576046466827393 -0.022994134575128555 0.22662696242332458 0.056538209319114685 0.16489221155643463 -0.04842689260840416 -0.006377962417900562 -0.028288939967751503 0.00516447052359581 -0.05733061581850052 0.25742700695991516 0.0828162431716919 6.956998258829117E-4 -0.1081608384847641 0.15668928623199463 -0.06968732923269272 0.05445387214422226 -0.07601820677518845 -0.08718589693307877 -0.09373156726360321 0.020030703395605087 -0.12884485721588135 0.0440920926630497 0.15565624833106995 0.050526153296232224 0.030484527349472046 0.11468645930290222 -0.09454192966222763 -0.0359216183423996 -0.11606580764055252 0.14057889580726624 0.13751855492591858 -0.0453316792845726 0.10365179181098938 0.1268652230501175 -0.002187110483646393 -0.09610165655612946 -0.07786662131547928 -0.02745869569480419 0.1004420593380928 0.10165445506572723 0.14909090101718903 0.07918904721736908 0.044861484318971634 0.2478635013103485 0.09142746031284332 -0.10488531738519669 0.024808168411254883 0.08547190576791763 -0.07757507264614105 -0.1778118759393692 0.03684752434492111 0.22310194373130798 0.07821042090654373 0.215226948261261 0.21010878682136536 0.13269613683223724 -0.0211779922246933 0.22275446355342865 -0.06347068399190903 0.14375218749046326 0.07226819545030594 0.07673490047454834 -0.0422452948987484 0.07457514107227325 0.10620901733636856 0.14588087797164917 0.08396712690591812 0.05835755914449692 -0.03137490525841713 0.0036627089139074087 0.08942894637584686 0.045180290937423706 0.04594819247722626 -0.06564346700906754 0.026771530508995056 -0.050059009343385696 -0.030915506184101105 0.11340873688459396 -0.07010830193758011 0.08845292031764984 -0.14933611452579498 -0.09398700296878815 0.057542432099580765 -0.08853444457054138 -0.07806116342544556 -0.10571315139532089 -6.684630061499774E-4 0.15403826534748077 -0.11479975283145905 0.19304494559764862 0.1307489275932312 0.21365919709205627 -0.01770283281803131 0.029588036239147186 0.16777978837490082 -0.15068304538726807 0.08790677040815353 -0.02497619390487671 0.07806134223937988 -0.0720757246017456 -0.05434176325798035 -0.025661436840891838 0.01624283194541931 -0.07779639959335327 -0.07673874497413635 -0.030932465568184853 -0.04754797741770744 -0.014291191473603249 -0.055823709815740585 -0.170272558927536 0.01378598716109991 -0.02636660262942314 0.09538788348436356 0.05523194372653961 0.06315959990024567 -0.20906172692775726 -0.05764812231063843 0.05845044180750847 0.17050287127494812 -0.09759984910488129 -0.004585884045809507 0.2776000499725342 0.1292421966791153 -0.13188743591308594 0.04505882039666176 0.007759375963360071 0.0014858866343274713 0.0199664905667305 0.03563322871923447 -0.013536723330616951 -0.0015582882333546877 -0.021217700093984604 0.03296135365962982 0.03777981549501419 0.21784482896327972 -0.0864720568060875 -0.11938675493001938 0.09094342589378357 -0.1126934364438057 -0.017343794927001 -0.04818222299218178 -0.1275833249092102 -0.037803102284669876 -0.1500130444765091 0.08794409781694412 -0.06237269937992096 0.2305232733488083 0.0725034773349762 0.023861480876803398 0.08240434527397156 -0.1369631439447403 0.014019288122653961 -0.18372391164302826 -0.005705482326447964 0.09176915884017944 -0.10908783972263336 -0.08499132841825485 0.10467413067817688 -0.18935883045196533 0.06536978483200073 0.004447355400770903 -0.004930444527417421 0.13698707520961761 -0.2791430950164795 -0.021618204191327095 0.05472185090184212 -0.21180909872055054 0.014347936026751995 0.040176309645175934 0.007783414330333471 -0.25342732667922974 -0.050048284232616425 0.11067153513431549 0.058446966111660004 -0.1793823093175888 -0.054846394807100296 -0.06938914209604263 -0.07551919668912888 -0.056826747953891754 0.014039593748748302 0.07827508449554443 -0.17465254664421082 0.01844281516969204 -0.01761518605053425 -0.08217193186283112 0.12157807499170303 0.1335614174604416 -0.035998888313770294 0.22988910973072052 -0.06980268657207489 -0.09337665140628815 -0.04333193600177765 0.003907010890543461 0.11523469537496567 -0.02134723588824272 0.0987003818154335 -0.10177699476480484 -0.15697912871837616 0.07932811975479126 -0.20951884984970093 0.16351743042469025 -0.027937881648540497 0.028607023879885674 0.040062930434942245 -0.15673549473285675 0.05120357871055603 -0.06702761352062225 -0.15336129069328308 0.19612731039524078 0.23211899399757385 -0.03118976764380932 -0.12586751580238342 -0.08671028912067413 0.04512099549174309 -0.16636912524700165 0.024986278265714645 -0.014539183117449284
year 0.0016426697839051485 -0.1174367219209671 0.16257914900779724 -0.01603180728852749 -0.03397657349705696 0.11812340468168259 -0.3345886468887329 0.25145024061203003 0.01931500993669033 0.09730622917413712 0.0040343101136386395 -0.045719340443611145 -0.016449784860014915 -0.09746144711971283 -0.027002202346920967 -0.16797903180122375 0.052118685096502304 0.13522961735725403 0.07788736373186111 -0.11323375999927521 0.05375757813453674 -0.0746232345700264 0.17616762220859528 -0.01035027764737606 0.11399935185909271 -0.04916293919086456 -0.10633054375648499 0.04271319508552551 -0.023074908182024956 0.00985198374837637 -0.17025066912174225 -0.15354804694652557 -0.026745125651359558 0.23953303694725037 -0.11127108335494995 -0.011840250343084335 0.045307282358407974 0.04674840718507767 -0.02779526077210903 0.08702066540718079 -0.06682852655649185 -0.08734828233718872 0.006459444761276245 0.024182764813303947 -0.0431661456823349 -0.15889763832092285 -0.05579899251461029 0.0050822775810956955 0.09029889851808548 -0.12963978946208954 -0.14962263405323029 -0.05079516023397446 0.015952786430716515 -0.216227725148201 -0.012002931907773018 -0.039009809494018555 -0.17150633037090302 -0.20335285365581512 -0.11305789649486542 -0.09369734674692154 -0.05421684309840202 0.007442890666425228 0.0843348279595375 0.019275354221463203 -0.1780327707529068 0.010422023944556713 0.017765380442142487 0.12739859521389008 -0.06008204072713852 0.007102330680936575 -0.10910960286855698 -0.032742198556661606 0.09485326707363129 -0.07468187063932419 -0.0643681213259697 0.03421159088611603 -0.10783809423446655 -0.10591858625411987 0.046360403299331665 0.16307169198989868 0.06465572118759155 -0.10068797320127487 0.08359404653310776 -0.025882424786686897 0.24644704163074493 0.08178833872079849 0.15403896570205688 -0.05949421226978302 -0.010956092737615108 -0.023371439427137375 0.01289072260260582 -0.06553417444229126 0.2679555416107178 0.0625697523355484 -0.006487580016255379 -0.10019481927156448 0.1600913107395172 -0.07542028278112411 0.07347945868968964 -0.07809112966060638 -0.08637870848178864 -0.10094024986028671 -0.010872723534703255 -0.1266949474811554 0.04013713821768761 0.16927802562713623 0.057586755603551865 0.05247582867741585 0.11523209512233734 -0.0941261500120163 -0.04141230881214142 -0.11990362405776978 0.1292763203382492 0.12988173961639404 -0.03260281682014465 0.10624609142541885 0.12166175991296768 -0.01554393582046032 -0.10669407993555069 -0.06506343185901642 -0.041510652750730515 0.08962336927652359 0.0974033996462822 0.13643541932106018 0.0880344957113266 0.043367400765419006 0.2353791743516922 0.11073008179664612 -0.12223567813634872 0.015446646139025688 0.08471163362264633 -0.07144507765769958 -0.1757245659828186 0.03280973806977272 0.21998336911201477 0.05634813755750656 0.22007866203784943 0.1952015608549118 0.13180199265480042 -0.006370034068822861 0.2110699862241745 -0.04277009889483452 0.15696486830711365 0.08937022089958191 0.07011128216981888 -0.03567001223564148 0.08873781561851501 0.11618977040052414 0.1434471160173416 0.09445451200008392 0.06996718049049377 -0.020962772890925407 0.015142970718443394 0.08158869296312332 0.03377211466431618 0.04538080841302872 -0.07631076127290726 0.032359980046749115 -0.020230351015925407 -0.03177952021360397 0.10662702471017838 -0.08184480667114258 0.0663628876209259 -0.15665756165981293 -0.08677279949188232 0.050317004323005676 -0.10257527977228165 -0.08925352990627289 -0.0990840420126915 0.016064373776316643 0.17091652750968933 -0.14142769575119019 0.20380106568336487 0.12413317710161209 0.20703212916851044 -0.010478770360350609 0.04875681921839714 0.15407809615135193 -0.16643543541431427 0.08557046949863434 -0.04361576959490776 0.09804634749889374 -0.0839742124080658 -0.044762011617422104 -0.01975918374955654 0.03691861778497696 -0.06747189909219742 -0.0867919772863388 -0.05363771319389343 -0.06685592234134674 -0.0209368783980608 -0.06954628229141235 -0.16537338495254517 0.011240587569773197 -0.010326378978788853 0.09459095448255539 0.055886171758174896 0.06726498901844025 -0.19796106219291687 -0.052025433629751205 0.0690360963344574 0.1782733052968979 -0.1056797057390213 -0.007069848477840424 0.28190410137176514 0.1330295354127884 -0.1307937651872635 0.04534460976719856 -7.446010713465512E-4 0.014292704872786999 0.019194375723600388 0.02559654414653778 -0.004947565030306578 0.010252516716718674 -0.027121057733893394 0.027436062693595886 0.06047393009066582 0.22542807459831238 -0.06968703866004944 -0.12537962198257446 0.10353206843137741 -0.11696086823940277 -0.020111896097660065 -0.0579678975045681 -0.11530843377113342 -0.03400304913520813 -0.13721758127212524 0.09011233597993851 -0.07114794105291367 0.22040554881095886 0.08231480419635773 0.020119087770581245 0.08654000610113144 -0.1373235434293747 0.011485036462545395 -0.19306840002536774 -0.00936776865273714 0.11156018078327179 -0.10231298208236694 -0.0959925428032875 0.0856146514415741 -0.18314455449581146 0.08354329317808151 0.00762500474229455 -0.0016852162079885602 0.14508159458637238 -0.27097880840301514 -0.009982249699532986 0.06161610409617424 -0.2011348158121109 0.015107514336705208 0.039583221077919006 0.0050904955714941025 -0.25475287437438965 -0.0283454991877079 0.10129256546497345 0.047797493636608124 -0.17227283120155334 -0.053598396480083466 -0.0460023358464241 -0.06703183799982071 -0.05158485844731331 0.015243160538375378 0.07367217540740967 -0.1726149171590805 0.026876214891672134 -0.015235234051942825 -0.07409080862998962 0.11656328290700912 0.13865576684474945 -0.030802905559539795 0.23090852797031403 -0.05126210302114487 -0.08633717894554138 -0.05376549810171127 0.006104226689785719 0.1316288858652115 -0.012763452716171741 0.10575013607740402 -0.09767863899469376 -0.1659487932920456 0.0733862891793251 -0.2011842131614685 0.17264287173748016 -0.02396882325410843 0.02767893671989441 0.030924342572689056 -0.16501949727535248 0.06828290224075317 -0.06763017922639847 -0.15062910318374634 0.21383105218410492 0.23443442583084106 -0.030912572517991066 -0.113595150411129 -0.0688575804233551 0.0494568757712841 -0.1561329960823059 0.018771812319755554 -0.010828965343534946
about -0.029574787244200706 -0.08352086693048477 0.1562051773071289 -0.044951148331165314 -0.028242651373147964 0.08466959744691849 -0.33309757709503174 0.18402212858200073 -0.005352488253265619 0.13592243194580078 0.020252687856554985 -0.028701981529593468 0.022607937455177307 -0.11936787515878677 -0.023185906931757927 -0.21866965293884277 0.006385474465787411 0.11226819455623627 0.04706964269280434 -0.06716837733983994 0.07074028253555298 -0.04752195626497269 0.17505818605422974 -0.02243887260556221 0.09582079201936722 -0.012174871750175953 -0.11625887453556061 0.021600529551506042 -0.05759808421134949 0.04656161367893219 -0.18473395705223083 -0.17163659632205963 -0.01255049742758274 0.23901858925819397 -0.05444451794028282 0.007992981933057308 0.11449547111988068 0.09444697946310043 -0.046472325921058655 0.04674987494945526 -0.05717264488339424 -0.1022707000374794 0.005030010361224413 0.020719395950436592 0.00504300557076931 -0.11786729842424393 -0.032230641692876816 -0.009311704896390438 0.07241959124803543 -0.08553618937730789 -0.10463251918554306 -0.08788758516311646 0.0011552851647138596 -0.23015429079532623 0.012734574265778065 -0.006785053759813309 -0.15083914995193481 -0.17561690509319305 -0.11796681582927704 -0.08519136160612106 -0.04190826043486595 3.305025747977197E-4 0.057184863835573196 0.05071685463190079 -0.17431598901748657 0.0016154947225004435 -0.018221227452158928 0.07766279578208923 -0.06651266664266586 9.618469048291445E-4 -0.1024974063038826 -0.056626077741384506 0.06135498359799385 -0.04525521397590637 -0.05949762463569641 0.028641406446695328 -0.09726501256227493 -0.11217865347862244 0.02731572464108467 0.15333400666713715 0.014719939790666103 -0.13393287360668182 0.07228360325098038 -0.04545126482844353 0.24247987568378448 0.061350129544734955 0.16526949405670166 0.027092238888144493 0.019862717017531395 8.344192756339908E-4 -0.044297944754362106 -0.060724034905433655 0.2557622194290161 0.1086055338382721 0.007997657172381878 -0.055409688502550125 0.1457785964012146 -0.05725402757525444 0.062005866318941116 -0.029888024553656578 -0.051565151661634445 -0.0672583132982254 -0.004131977446377277 -0.13867835700511932 0.026791883632540703 0.14198771119117737 0.047040510922670364 0.014571120962500572 0.0954904779791832 -0.1456684023141861 -0.05279164761304855 -0.15417076647281647 0.1251872330904007 0.08967189490795135 -0.029598016291856766 0.07781990617513657 0.17753304541110992 0.04674699157476425 -0.11758577078580856 -0.04475525766611099 -0.034002695232629776 0.09564178436994553 0.03750116750597954 0.1596737504005432 0.09620433300733566 0.05687263235449791 0.22312220931053162 0.11713311076164246 -0.13909117877483368 -0.014360406436026096 0.11467725783586502 -0.06545104086399078 -0.1404857039451599 0.013282752595841885 0.19509820640087128 0.03223246708512306 0.22253623604774475 0.22776779532432556 0.11979978531599045 -0.051172755658626556 0.20396506786346436 -0.08579739928245544 0.13434310257434845 0.07790631055831909 0.08300188928842545 -0.04404270648956299 0.11927013099193573 0.12331768870353699 0.1120297834277153 0.08591725677251816 0.09257018566131592 -0.009798767045140266 0.02288624458014965 0.05807710811495781 0.02712162770330906 0.023744674399495125 -0.06406719982624054 0.08036582171916962 -0.009779540821909904 -0.05001698061823845 0.0885082334280014 -0.10494202375411987 0.0657142624258995 -0.10707280784845352 -0.11592183262109756 -0.003502287669107318 -0.09987527877092361 -0.1224832683801651 -0.12540173530578613 0.006615986581891775 0.15527468919754028 -0.12455034255981445 0.2119966745376587 0.09724768996238708 0.19276848435401917 1.494084281148389E-4 0.04972328990697861 0.12865693867206573 -0.14237602055072784 0.07423244416713715 -0.03872350975871086 0.10880488902330399 -0.07878242433071136 -0.01101469062268734 0.0458185113966465 0.04170288145542145 -0.06112987920641899 -0.08863604068756104 -0.04343733564019203 -0.06938174366950989 -0.030055630952119827 -0.03412991389632225 -0.17006266117095947 0.09850860387086868 -0.027615277096629143 0.11995358765125275 0.07369893789291382 0.054836176335811615 -0.1947593241930008 -0.07661496102809906 0.09715051203966141 0.16038142144680023 -0.08162689208984375 0.03695788234472275 0.27352333068847656 0.1623622477054596 -0.12729424238204956 0.04817329719662666 0.014116434380412102 0.009922720491886139 0.021167268976569176 0.025608766824007034 -0.00558052584528923 -0.03154713660478592 -0.048712488263845444 0.01655503921210766 0.04236118867993355 0.27055102586746216 -0.07533986121416092 -0.11151605099439621 0.08180803805589676 -0.14033645391464233 -0.02562839910387993 -0.08074942976236343 -0.08291348814964294 -0.08134389668703079 -0.14059627056121826 0.039300788193941116 -0.07486593723297119 0.20572122931480408 0.07366987317800522 0.042923372238874435 0.10781076550483704 -0.10695654153823853 0.02249193750321865 -0.16688108444213867 -0.027782943099737167 0.1072612851858139 -0.04839665815234184 -0.13081476092338562 0.05011093616485596 -0.1521749496459961 0.04016445204615593 0.02285453863441944 0.023204170167446136 0.1559143364429474 -0.22916583716869354 -8.205593912862241E-4 0.02811838500201702 -0.154788076877594 -0.018132634460926056 0.039047833532094955 0.0555543452501297 -0.21072767674922943 -0.047223422676324844 0.06862383335828781 0.06367850303649902 -0.1995621919631958 -0.05457200109958649 -0.0390593521296978 -0.03570917621254921 -0.01802147924900055 -0.028327004984021187 0.10029852390289307 -0.13952860236167908 0.029539650306105614 0.045263826847076416 -0.03081110119819641 0.12218309193849564 0.10835404694080353 -0.04224873706698418 0.23784661293029785 -0.022556455805897713 -0.08445507287979126 -0.056612152606248856 0.006429784465581179 0.07415692508220673 0.01485179178416729 0.02461300417780876 -0.10895243287086487 -0.12660731375217438 0.031402695924043655 -0.1872563511133194 0.14522793889045715 -0.04313933849334717 0.03785257041454315 0.04752515256404877 -0.1680174618959427 0.06943732500076294 -0.06816080957651138 -0.10050609707832336 0.24670320749282837 0.2249901294708252 -0.049083296209573746 -0.11546601355075836 -0.11417073756456375 0.03434859216213226 -0.1956399381160736 0.016620485112071037 -0.013360101729631424
your -0.008637857623398304 -0.09999004751443863 0.1499261111021042 -0.02778696082532406 -0.038951124995946884 0.10027426481246948 -0.3311637043952942 0.23036301136016846 0.011204974725842476 0.11686243116855621 0.0042941090650856495 -0.041642606258392334 1.5325157437473536E-4 -0.10263556987047195 -0.026848934590816498 -0.18579097092151642 0.04044719040393829 0.1297120898962021 0.0651412233710289 -0.09720519185066223 0.05368790403008461 -0.0651891827583313 0.1764436960220337 -0.01339771505445242 0.10155881941318512 -0.03933857008814812 -0.10250833630561829 0.033869896084070206 -0.030140947550535202 0.027699138969182968 -0.16744127869606018 -0.149463951587677 -0.03005487471818924 0.23163865506649017 -0.08396829664707184 -0.004209268372505903 0.06917504221200943 0.0724254623055458 -0.03412378579378128 0.07100560516119003 -0.06847118586301804 -0.09168600291013718 0.005453421734273434 0.028875434771180153 -0.03099857084453106 -0.15172070264816284 -0.04122501239180565 -0.0023337057791650295 0.08559026569128036 -0.11080378293991089 -0.1336023211479187 -0.053946927189826965 0.012394599616527557 -0.20839758217334747 -0.001870968146249652 -0.02657249942421913 -0.16688652336597443 -0.1891472041606903 -0.10971880704164505 -0.0969674214720726 -0.049897391349077225 0.0015400857664644718 0.07901179790496826 0.027884159237146378 -0.17433224618434906 0.006318909116089344 0.001164651708677411 0.10951021313667297 -0.05779383331537247 0.003513643518090248 -0.10113101452589035 -0.03845253959298134 0.08189419656991959 -0.07186339050531387 -0.06392449885606766 0.03200947120785713 -0.10209096968173981 -0.12420045584440231 0.03308568149805069 0.1528548300266266 0.04448867589235306 -0.11167329549789429 0.07537594437599182 -0.03186936303973198 0.2538013756275177 0.08022867888212204 0.15167385339736938 -0.03185722976922989 -0.002273453399538994 -0.01840464025735855 -0.0028120202478021383 -0.05678587034344673 0.26023995876312256 0.0704197958111763 -0.005187587812542915 -0.08042288571596146 0.14430275559425354 -0.06849955022335052 0.07607665657997131 -0.06342213600873947 -0.07217837870121002 -0.09024495631456375 -0.014570430852472782 -0.12320951372385025 0.03271655738353729 0.16840720176696777 0.05907216668128967 0.04834326356649399 0.10738766938447952 -0.11579219251871109 -0.03433642536401749 -0.12269428372383118 0.12849733233451843 0.10722395032644272 -0.02304018661379814 0.09686040878295898 0.1302661895751953 0.005413515493273735 -0.11388533562421799 -0.051606446504592896 -0.0371011421084404 0.08398269861936569 0.07974425703287125 0.14510419964790344 0.08261512219905853 0.041531406342983246 0.2244698703289032 0.11266648024320602 -0.13061775267124176 0.003012953093275428 0.0940142348408699 -0.06625263392925262 -0.16035982966423035 0.03418475389480591 0.2073194980621338 0.04919536039233208 0.209763765335083 0.20341774821281433 0.1324617564678192 -0.01603977382183075 0.20043867826461792 -0.05564479902386665 0.14737199246883392 0.08490481972694397 0.07672646641731262 -0.03955795615911484 0.10496015101671219 0.12043137848377228 0.12995778024196625 0.0938485637307167 0.08200693875551224 -0.01672285795211792 0.018339740112423897 0.07922260463237762 0.03257046639919281 0.044120222330093384 -0.07170618325471878 0.0479259267449379 -0.00959569402039051 -0.04509230703115463 0.10181602835655212 -0.08862558007240295 0.0615241564810276 -0.14121702313423157 -0.0997675210237503 0.029232624918222427 -0.1002185195684433 -0.093077652156353 -0.10451749712228775 0.01094913762062788 0.16532614827156067 -0.13970313966274261 0.2098299264907837 0.11377587169408798 0.19432394206523895 -0.00539727509021759 0.04631739854812622 0.14033998548984528 -0.15919020771980286 0.08497913926839828 -0.04297224059700966 0.10883906483650208 -0.08565187454223633 -0.03467896580696106 0.0024558398872613907 0.0435975156724453 -0.06053681671619415 -0.08942391723394394 -0.05454467609524727 -0.06114278361201286 -0.01653747633099556 -0.05521786957979202 -0.16355738043785095 0.028970394283533096 -0.010774277150630951 0.10188207030296326 0.0658096894621849 0.07184332609176636 -0.1910027116537094 -0.04817339777946472 0.08083448559045792 0.17009371519088745 -0.10004197061061859 0.00514019513502717 0.26750046014785767 0.13855983316898346 -0.1297648400068283 0.04942624270915985 0.0014364883536472917 0.007386805023998022 0.016600655391812325 0.015780707821249962 -0.001364217372611165 -9.01952211279422E-4 -0.036954134702682495 0.022561611607670784 0.05812770128250122 0.23737922310829163 -0.07009392976760864 -0.12355589121580124 0.09976575523614883 -0.12352622300386429 -0.029181307181715965 -0.06163913011550903 -0.10433228313922882 -0.044986143708229065 -0.13072481751441956 0.07350984960794449 -0.0718240886926651 0.21116700768470764 0.08102884143590927 0.024143638089299202 0.09192877262830734 -0.13479390740394592 0.012211031280457973 -0.18545155227184296 -0.01237795315682888 0.11422351747751236 -0.08888216316699982 -0.09790515899658203 0.06595563888549805 -0.17694219946861267 0.07927831262350082 0.010881837457418442 0.0037024724297225475 0.14534230530261993 -0.2517944872379303 0.001009622705169022 0.04947629198431969 -0.17890343070030212 0.010724583640694618 0.04355725646018982 0.024571804329752922 -0.2388729453086853 -0.028055422008037567 0.08855651319026947 0.04532082751393318 -0.17940032482147217 -0.04964340850710869 -0.034091200679540634 -0.05175584554672241 -0.03615112230181694 0.0022585070692002773 0.08139859139919281 -0.16700918972492218 0.040555551648139954 0.0070215146988630295 -0.06160920485854149 0.10694999992847443 0.13082273304462433 -0.03207460418343544 0.2232576161623001 -0.03248938173055649 -0.08500422537326813 -0.06036229059100151 0.00482055963948369 0.11300794780254364 0.005710688419640064 0.0740160420536995 -0.10044834017753601 -0.14841057360172272 0.0584305040538311 -0.19079318642616272 0.1659243255853653 -0.030413230881094933 0.03427083417773247 0.037080395966768265 -0.16357913613319397 0.07405894994735718 -0.07654207199811935 -0.12505802512168884 0.2215360552072525 0.22167687118053436 -0.041583023965358734 -0.10864187031984329 -0.08561979979276657 0.04104083031415939 -0.16567465662956238 0.014997676946222782 -0.018250998109579086
without -0.00888859387487173 -0.08178465813398361 0.11795337498188019 -0.023986220359802246 -0.030734078958630562 0.07458449900150299 -0.26657408475875854 0.1822081208229065 0.0054891458712518215 0.09998848289251328 0.004444583784788847 -0.030492885038256645 6.47998764179647E-4 -0.08379373699426651 -0.018497290089726448 -0.15320324897766113 0.03362102061510086 0.10331215709447861 0.051363568753004074 -0.07325964421033859 0.039091113954782486 -0.05427020788192749 0.138482928276062 -0.007886641658842564 0.078402079641819 -0.02636224590241909 -0.07854221761226654 0.023743031546473503 -0.028242751955986023 0.02194567583501339 -0.13646841049194336 -0.12444929033517838 -0.023203937336802483 0.1849953681230545 -0.06408412009477615 -0.005960137117654085 0.05976392328739166 0.05905052646994591 -0.026400409638881683 0.05819041654467583 -0.05701839551329613 -0.07997941225767136 0.007750797085464001 0.024354834109544754 -0.014651288278400898 -0.11462132632732391 -0.026861216872930527 -5.018879310227931E-4 0.06676814705133438 -0.09027864038944244 -0.10438735783100128 -0.045381687581539154 0.008995642885565758 -0.16849008202552795 -0.0010575557826086879 -0.018297996371984482 -0.13326528668403625 -0.1508890688419342 -0.09234686195850372 -0.07741167396306992 -0.038344647735357285 -8.22144967969507E-4 0.0631500855088234 0.02913825213909149 -0.14067442715168 0.003860774450004101 -6.355419172905385E-4 0.08287521451711655 -0.049371566623449326 0.004521573428064585 -0.0801018625497818 -0.03243132308125496 0.06556975841522217 -0.05779688432812691 -0.048979952931404114 0.020610997453331947 -0.07791399955749512 -0.09969521313905716 0.02640129067003727 0.117314912378788 0.031657855957746506 -0.09037286043167114 0.05940897762775421 -0.026145147159695625 0.20404870808124542 0.0685785710811615 0.12198067456483841 -0.016479939222335815 0.0020089461468160152 -0.007195592392235994 -0.005228567402809858 -0.04334954544901848 0.20767264068126678 0.058092959225177765 -0.0011773502919822931 -0.061191774904727936 0.1166195273399353 -0.05237802118062973 0.0609356127679348 -0.04967622458934784 -0.058077622205019 -0.07447714358568192 -0.014628017321228981 -0.09695161879062653 0.02860763669013977 0.13539527356624603 0.05211970582604408 0.03842419758439064 0.08490906655788422 -0.09928479790687561 -0.027028750628232956 -0.1018376275897026 0.09825804084539413 0.08211732655763626 -0.017536025494337082 0.0780029147863388 0.10655035078525543 0.009396011009812355 -0.09443056583404541 -0.03598850592970848 -0.03154654800891876 0.06758779287338257 0.0588446669280529 0.11928967386484146 0.06967625766992569 0.0335858017206192 0.17830732464790344 0.09774187207221985 -0.1086874008178711 -0.0027134947013109922 0.07513105124235153 -0.05080265924334526 -0.12534335255622864 0.024785637855529785 0.1647207885980606 0.030948173254728317 0.17349092662334442 0.16781112551689148 0.10878820717334747 -0.016948319971561432 0.15741847455501556 -0.04954152926802635 0.12203866243362427 0.06383863091468811 0.06538346409797668 -0.03190692886710167 0.08258212357759476 0.09830489754676819 0.10218621790409088 0.07776477932929993 0.06677941977977753 -0.00996379554271698 0.013441952876746655 0.05923454090952873 0.025813378393650055 0.035375554114580154 -0.05558904632925987 0.04187902808189392 -0.0025941524654626846 -0.03976288437843323 0.0841280147433281 -0.0701301321387291 0.04817024618387222 -0.10565561801195145 -0.0842650830745697 0.017308183014392853 -0.0829993337392807 -0.07524488121271133 -0.0869186669588089 0.009362303651869297 0.13347363471984863 -0.11932601034641266 0.17175818979740143 0.08936859667301178 0.15511903166770935 -0.0012107726652175188 0.04090051352977753 0.10449286550283432 -0.1302381455898285 0.07368743419647217 -0.034428682178258896 0.08794877678155899 -0.0661105141043663 -0.024412240833044052 0.004817650653421879 0.03692879527807236 -0.04703959450125694 -0.06790363788604736 -0.04491453617811203 -0.051319267600774765 -0.015329130925238132 -0.0416441336274147 -0.12980610132217407 0.031226560473442078 -0.005688818637281656 0.08136257529258728 0.05411268770694733 0.060581814497709274 -0.15489614009857178 -0.04170079901814461 0.06496238708496094 0.13405925035476685 -0.07840761542320251 0.0062669068574905396 0.2157897651195526 0.1153087392449379 -0.10810887068510056 0.03806138038635254 0.001671153586357832 0.006275177467614412 0.012743083760142326 0.009078984148800373 -0.00150465895421803 -0.006469883490353823 -0.030979512259364128 0.01977413520216942 0.047353554517030716 0.1953677535057068 -0.05654436722397804 -0.10058077424764633 0.0812852755188942 -0.10191113501787186 -0.024766413494944572 -0.05292021110653877 -0.08296613395214081 -0.040483806282281876 -0.1038169115781784 0.05746886134147644 -0.0573391318321228 0.1692575365304947 0.06720049679279327 0.018960656598210335 0.07518693059682846 -0.10756778717041016 0.005081712733954191 -0.1476072072982788 -0.0081018740311265 0.09546387195587158 -0.06789488345384598 -0.07748046517372131 0.05154449865221977 -0.13860514760017395 0.0625699982047081 0.006830019876360893 0.007891654968261719 0.11805731803178787 -0.19600962102413177 -2.775141620077193E-4 0.0366082526743412 -0.13915422558784485 0.0036100586876273155 0.03689686208963394 0.024057602509856224 -0.1863066703081131 -0.02192731760442257 0.06944338232278824 0.038427259773015976 -0.146064892411232 -0.040676821023225784 -0.028664924204349518 -0.04114750027656555 -0.023997612297534943 5.6753066019155085E-5 0.06607164442539215 -0.13174468278884888 0.031058859080076218 0.01126441452652216 -0.04813964664936066 0.09209638088941574 0.10645642131567001 -0.028486305847764015 0.18688330054283142 -0.019234975799918175 -0.0665217861533165 -0.050618305802345276 0.006831679958850145 0.08889659494161606 0.006843734998255968 0.05400644242763519 -0.08315333724021912 -0.11152679473161697 0.04346266761422157 -0.1527307629585266 0.13617593050003052 -0.029072798788547516 0.027519047260284424 0.0314711295068264 -0.13794879615306854 0.05883657932281494 -0.05839436501264572 -0.09601318091154099 0.18300898373126984 0.17333640158176422 -0.039797041565179825 -0.08528541028499603 -0.07201598584651947 0.03046266734600067 -0.13595090806484222 0.013600513339042664 -0.016363466158509254
these -0.011382573284208775 -0.08940865844488144 0.13517406582832336 -0.029405493289232254 -0.039811570197343826 0.08525223284959793 -0.307332307100296 0.20071274042129517 0.006740892305970192 0.11937112361192703 0.010312755592167377 -0.03979557380080223 0.01050239335745573 -0.09890885651111603 -0.027533061802387238 -0.17984235286712646 0.029544619843363762 0.12110495567321777 0.05098232999444008 -0.08008600026369095 0.05235469713807106 -0.05659763514995575 0.16895794868469238 -0.017726117745041847 0.09527919441461563 -0.032320424914360046 -0.09400520473718643 0.02755933441221714 -0.0391010120511055 0.03702335059642792 -0.15720818936824799 -0.14044420421123505 -0.024927224963903427 0.20670707523822784 -0.06462104618549347 -0.004497659858316183 0.08031956851482391 0.07589723914861679 -0.04031114652752876 0.05484556406736374 -0.06921139359474182 -0.08851709961891174 0.0016034952132031322 0.03239854797720909 -0.02044021338224411 -0.13529373705387115 -0.031115813180804253 0.0013910759007558227 0.06854389607906342 -0.09298327565193176 -0.11468978971242905 -0.05539288744330406 0.0039452421478927135 -0.19908569753170013 0.007353694643825293 -0.025661494582891464 -0.15401360392570496 -0.16321779787540436 -0.10197632759809494 -0.09312953799962997 -0.042833562940359116 0.0033677814062684774 0.06930437684059143 0.026448331773281097 -0.1617235541343689 0.003670718055218458 -0.007929328829050064 0.09164642542600632 -0.05445544421672821 0.0030247175600379705 -0.09216462075710297 -0.0330192968249321 0.06756434589624405 -0.06220685690641403 -0.06506689637899399 0.031059665605425835 -0.09040302038192749 -0.1250523179769516 0.025784466415643692 0.14227457344532013 0.034415002912282944 -0.10838650912046432 0.0686359703540802 -0.03537968546152115 0.2348945140838623 0.073586605489254 0.14303314685821533 -0.010712316259741783 0.0010497370967641473 -0.01483405102044344 -0.016974331811070442 -0.052639804780483246 0.23967434465885162 0.07368143647909164 -0.002066063228994608 -0.06246184557676315 0.13172997534275055 -0.05575893819332123 0.06697868555784225 -0.05242935195565224 -0.060328006744384766 -0.0757492408156395 -0.006767071783542633 -0.12321853637695312 0.02362462505698204 0.14962507784366608 0.0570533312857151 0.03771451860666275 0.09774823486804962 -0.11495821177959442 -0.0299355648458004 -0.1203138530254364 0.12133589386940002 0.09273142367601395 -0.02183551713824272 0.08594763278961182 0.12721586227416992 0.018153002485632896 -0.10724033415317535 -0.04748920351266861 -0.026979003101587296 0.0812772586941719 0.06317342817783356 0.1425800919532776 0.07503683865070343 0.03848859667778015 0.20293521881103516 0.1024092361330986 -0.12168092280626297 -0.003215102246031165 0.093845434486866 -0.05982549488544464 -0.1398741602897644 0.03424416482448578 0.18959693610668182 0.04543601721525192 0.19682826101779938 0.1988174319267273 0.12112116813659668 -0.023589398711919785 0.19204504787921906 -0.06241753697395325 0.12979066371917725 0.07788275927305222 0.07291679084300995 -0.03924369812011719 0.10155988484621048 0.11393707990646362 0.11498528718948364 0.08404577523469925 0.08158959448337555 -0.015028689987957478 0.017761949449777603 0.070308156311512 0.03418269753456116 0.036248162388801575 -0.06176191195845604 0.05528487265110016 -0.014334074221551418 -0.04775077477097511 0.09155554324388504 -0.08490369468927383 0.06050030142068863 -0.12386424839496613 -0.10423580557107925 0.022953536361455917 -0.08641767501831055 -0.08625901490449905 -0.09909436851739883 0.007051194552332163 0.14949889481067657 -0.12371077388525009 0.19279682636260986 0.09932182729244232 0.181611105799675 -0.0025662300176918507 0.0414467416703701 0.12552915513515472 -0.1435522735118866 0.07571278512477875 -0.03896404430270195 0.10031019896268845 -0.07784426957368851 -0.027508854866027832 0.011232244782149792 0.034518010914325714 -0.051591675728559494 -0.08075705915689468 -0.0464058518409729 -0.04866984859108925 -0.013313621282577515 -0.04909295216202736 -0.15323716402053833 0.03998011723160744 -0.01439889706671238 0.09588813036680222 0.06689917296171188 0.06592471897602081 -0.18333286046981812 -0.04564709588885307 0.07776852697134018 0.15449142456054688 -0.09044744074344635 0.011618555523455143 0.24413400888442993 0.13033729791641235 -0.11708380281925201 0.045264843851327896 0.0034811412915587425 0.006728015840053558 0.008973888121545315 0.011660381220281124 -0.006627021357417107 -0.0126646738499403 -0.0356854647397995 0.018771136179566383 0.049476172775030136 0.22623617947101593 -0.06870797276496887 -0.11157852411270142 0.08847931027412415 -0.11768927425146103 -0.0309568140655756 -0.05909954383969307 -0.08689761906862259 -0.050720538944005966 -0.12335673719644547 0.060843952000141144 -0.06076866015791893 0.19175322353839874 0.07248934358358383 0.03250429779291153 0.09106452018022537 -0.12086154520511627 0.012010224163532257 -0.16988055408000946 -0.01624446175992489 0.10360638797283173 -0.07760267704725266 -0.09615370631217957 0.051566191017627716 -0.16198581457138062 0.06284462660551071 0.01135884691029787 0.005813456606119871 0.13552074134349823 -0.22929315268993378 0.0014572655782103539 0.04203274846076965 -0.15938127040863037 0.003075101412832737 0.039893023669719696 0.033318836241960526 -0.21765758097171783 -0.0321374386548996 0.07857917994260788 0.04419587552547455 -0.1686585545539856 -0.048389535397291183 -0.034175675362348557 -0.041727323085069656 -0.03058427944779396 -0.003016057191416621 0.0811346173286438 -0.14835695922374725 0.04086731746792793 0.019319521263241768 -0.06137965992093086 0.09996791929006577 0.1147201880812645 -0.030583949759602547 0.2033689171075821 -0.027052512392401695 -0.07486288249492645 -0.055716246366500854 0.007471010554581881 0.09258279204368591 0.012276248075067997 0.04928983002901077 -0.09867022931575775 -0.12968198955059052 0.05076689273118973 -0.17314456403255463 0.15043656527996063 -0.03234028443694115 0.035002920776605606 0.03715786710381508 -0.1537921279668808 0.06872139126062393 -0.07683800160884857 -0.10880271345376968 0.20503033697605133 0.20365628600120544 -0.040580082684755325 -0.1034504771232605 -0.09023790806531906 0.03324984014034271 -0.16203151643276215 0.012093985453248024 -0.01763073168694973
companies -0.008559184148907661 -0.058149367570877075 0.08775372058153152 -0.019124560058116913 -0.024533919990062714 0.054085634648799896 -0.19293077290058136 0.1327018290758133 0.0058859423734247684 0.07114861905574799 0.005729936994612217 -0.023599905893206596 0.0016425882931798697 -0.06260311603546143 -0.015711883082985878 -0.11129225790500641 0.02233828231692314 0.07738274335861206 0.03389667347073555 -0.05390215665102005 0.028817592188715935 -0.037372659891843796 0.10222399234771729 -0.007315758150070906 0.0591573566198349 -0.019330769777297974 -0.0586237832903862 0.019315605983138084 -0.02146686613559723 0.016769034788012505 -0.09888740628957748 -0.08813747018575668 -0.017526080831885338 0.13295307755470276 -0.0471765473484993 -0.007748156785964966 0.044406138360500336 0.04258505254983902 -0.020722419023513794 0.04120223969221115 -0.04282452166080475 -0.055644821375608444 0.0013668410247191787 0.017073217779397964 -0.013616025447845459 -0.08499900251626968 -0.021164607256650925 -7.279330748133361E-5 0.04500414431095123 -0.063194140791893 -0.07445403188467026 -0.03137867897748947 0.006813613697886467 -0.12164654582738876 0.004541052971035242 -0.012284074909985065 -0.09855520725250244 -0.10746084153652191 -0.06292545050382614 -0.05688240006566048 -0.02873195707798004 0.002571635879576206 0.045161083340644836 0.015190031379461288 -0.10247272253036499 0.0017442612443119287 -0.0020064839627593756 0.062322426587343216 -0.03736349940299988 0.003063399810343981 -0.05823319032788277 -0.022972414270043373 0.04486864060163498 -0.041632648557424545 -0.039202239364385605 0.016542863100767136 -0.05955883488059044 -0.07772393524646759 0.01775967702269554 0.08935657143592834 0.022163989022374153 -0.0655447468161583 0.044875774532556534 -0.02031797170639038 0.14664298295974731 0.047350604087114334 0.08967823535203934 -0.010596651583909988 -2.1873000150662847E-5 -0.007828738540410995 -0.005053699482232332 -0.029927091673016548 0.15311299264431 0.042655859142541885 1.4454135089181364E-4 -0.04558679461479187 0.08362755179405212 -0.036628276109695435 0.04122745245695114 -0.03657040372490883 -0.04222235083580017 -0.05314353480935097 -0.0079616354778409 -0.0718589797616005 0.019451916217803955 0.09767287969589233 0.03712946176528931 0.02425927110016346 0.060848210006952286 -0.07139039784669876 -0.01698918454349041 -0.07208585739135742 0.07566138356924057 0.060615286231040955 -0.015661336481571198 0.05519798770546913 0.07866824418306351 0.007517464458942413 -0.06585539877414703 -0.030405564233660698 -0.02062908373773098 0.05099211260676384 0.04213841259479523 0.08984808623790741 0.049564678221940994 0.025474749505519867 0.1306898593902588 0.06598898023366928 -0.0755675733089447 -0.0013953644083812833 0.05626621097326279 -0.04014677554368973 -0.09305726736783981 0.022199247032403946 0.12386827170848846 0.027972105890512466 0.1252722144126892 0.12238267809152603 0.07796478271484375 -0.015059140510857105 0.1173517182469368 -0.03877893090248108 0.08761166036128998 0.04703829064965248 0.04681134596467018 -0.024225469678640366 0.06231364235281944 0.06993138790130615 0.07481019198894501 0.05659114196896553 0.05078887566924095 -0.009774205274879932 0.007592940237373114 0.045609086751937866 0.021341662853956223 0.025945205241441727 -0.03983118757605553 0.03067168779671192 -0.0057104527950286865 -0.031256888061761856 0.06103646382689476 -0.049699585884809494 0.03861250355839729 -0.07957911491394043 -0.06380457431077957 0.015283794142305851 -0.05795080214738846 -0.05649516358971596 -0.06266195327043533 0.006038994994014502 0.09477274864912033 -0.08220015466213226 0.12449120730161667 0.066153384745121 0.1119774654507637 -0.003890685271471739 0.025793978944420815 0.08005791157484055 -0.09238141030073166 0.05081918090581894 -0.02516920305788517 0.0644473135471344 -0.04895476624369621 -0.019902817904949188 0.006002968177199364 0.02720821648836136 -0.03455953672528267 -0.04997187852859497 -0.03123544715344906 -0.03435062617063522 -0.009030568413436413 -0.029765082523226738 -0.09624168276786804 0.01982756331562996 -0.005555214826017618 0.058120667934417725 0.03965744003653526 0.04694462940096855 -0.11599185317754745 -0.028522558510303497 0.050235647708177567 0.0969887375831604 -0.056858185678720474 0.004181963391602039 0.1561555713415146 0.0835493877530098 -0.07959853112697601 0.02543623559176922 9.343130514025688E-4 0.006000869907438755 0.007964471355080605 0.009364783763885498 -0.0014555650996044278 -0.0039814542979002 -0.02293485216796398 0.012957972474396229 0.03166778013110161 0.14148031175136566 -0.045647211372852325 -0.07222731411457062 0.05771981179714203 -0.07125407457351685 -0.019494574517011642 -0.036737870424985886 -0.06087816134095192 -0.02912864089012146 -0.07611169666051865 0.0428222119808197 -0.04179408401250839 0.12653523683547974 0.046430837363004684 0.016455283388495445 0.055073175579309464 -0.08125421404838562 0.005161495879292488 -0.10668974369764328 -0.009836962446570396 0.06633727997541428 -0.05316166207194328 -0.05673392862081528 0.036878395825624466 -0.10518909990787506 0.044420912861824036 0.006108677946031094 0.002059528836980462 0.08675116300582886 -0.14610855281352997 -0.002417905256152153 0.029453426599502563 -0.10312014818191528 0.00403194036334753 0.02592225931584835 0.016200434416532516 -0.13890914618968964 -0.018787916749715805 0.051265913993120193 0.025455446913838387 -0.1046619638800621 -0.02928902767598629 -0.0236892718821764 -0.030039798468351364 -0.019244030117988586 0.0010495149763301015 0.04827059805393219 -0.09522848576307297 0.02335532009601593 0.008903410285711288 -0.03985230624675751 0.06447530537843704 0.07463008910417557 -0.021252915263175964 0.13106510043144226 -0.01608872413635254 -0.04861439764499664 -0.035015128552913666 0.0055816806852817535 0.06244133785367012 0.006291969213634729 0.03537740930914879 -0.06008102744817734 -0.08317791670560837 0.032837457954883575 -0.10951974987983704 0.09802676737308502 -0.018621370196342468 0.020359566435217857 0.024117151275277138 -0.09497062861919403 0.04255349934101105 -0.04690907523036003 -0.07188858091831207 0.13139241933822632 0.12614218890666962 -0.02878289483487606 -0.06532244384288788 -0.05183436721563339 0.020567642524838448 -0.10133445262908936 0.008667981252074242 -0.013811084441840649
music -0.009727554395794868 -0.08784060180187225 0.13432565331459045 -0.024802394211292267 -0.03480687364935875 0.08445590734481812 -0.2901092767715454 0.19992002844810486 0.01024706196039915 0.10642100125551224 0.008597297593951225 -0.036019645631313324 2.831381279975176E-4 -0.0930059626698494 -0.025052327662706375 -0.16588345170021057 0.03323822095990181 0.11670582741498947 0.055135998874902725 -0.08153081685304642 0.04649021476507187 -0.057218361645936966 0.1541295051574707 -0.01256493292748928 0.08930724114179611 -0.02989049255847931 -0.08934510499238968 0.029071571305394173 -0.029878195375204086 0.024104462936520576 -0.14823518693447113 -0.13309115171432495 -0.023320617154240608 0.2016056627035141 -0.0717969685792923 -0.00931826513260603 0.06377063691616058 0.06182561814785004 -0.028640996664762497 0.060628294944763184 -0.06038875877857208 -0.08304233103990555 0.0016058636829257011 0.02746596187353134 -0.02323373779654503 -0.12809738516807556 -0.03518924489617348 0.0010292413644492626 0.07116766273975372 -0.0992560014128685 -0.11295708268880844 -0.051680807024240494 0.00828949548304081 -0.18395715951919556 0.0036069597117602825 -0.022825611755251884 -0.1480071246623993 -0.16494174301624298 -0.09889184683561325 -0.08407168835401535 -0.04316795617341995 0.0013690836494788527 0.06660041213035583 0.026217298582196236 -0.15393097698688507 0.003166353330016136 -0.0013225267175585032 0.09394558519124985 -0.05490954965353012 0.002052944852039218 -0.08807671815156937 -0.03299699351191521 0.07207951694726944 -0.06208333000540733 -0.058957356959581375 0.02612254023551941 -0.0898561105132103 -0.11237587034702301 0.028415780514478683 0.13392691314220428 0.03805653750896454 -0.10040747374296188 0.06763765215873718 -0.029011262580752373 0.22271178662776947 0.07042767852544785 0.13419538736343384 -0.019084369763731956 0.0010730103822425008 -0.012312610633671284 -0.004984914790838957 -0.047134727239608765 0.22844134271144867 0.06548112630844116 -0.0027503310702741146 -0.06835116446018219 0.12800484895706177 -0.058381885290145874 0.06279882043600082 -0.05606810376048088 -0.06214797496795654 -0.08054491132497787 -0.01032791193574667 -0.11035803705453873 0.03131524845957756 0.14757727086544037 0.05326990410685539 0.03677329793572426 0.09320815652608871 -0.10617078840732574 -0.031068233773112297 -0.10824934393167496 0.11299003660678864 0.09299566596746445 -0.02379867061972618 0.0854995846748352 0.11769212782382965 0.008665511384606361 -0.10108929127454758 -0.04646376147866249 -0.03023141250014305 0.07805424928665161 0.06820528954267502 0.13179059326648712 0.07387223839759827 0.0382925420999527 0.19821195304393768 0.09886522591114044 -0.11420749127864838 -2.767109253909439E-4 0.0835312008857727 -0.05820852518081665 -0.13941162824630737 0.02989153191447258 0.18332049250602722 0.04267125949263573 0.1879633069038391 0.18175947666168213 0.11975860595703125 -0.019953245297074318 0.17870794236660004 -0.0567532442510128 0.12847314774990082 0.07180655747652054 0.07135410606861115 -0.03602983430027962 0.0927247554063797 0.10399769991636276 0.11538870632648468 0.0827091783285141 0.07233063131570816 -0.014911197125911713 0.01313085574656725 0.06875218451023102 0.03237778693437576 0.0373358391225338 -0.06201398745179176 0.04431833326816559 -0.008179900236427784 -0.042128294706344604 0.09101206809282303 -0.07469915598630905 0.059079378843307495 -0.1205369383096695 -0.09353022277355194 0.02564929611980915 -0.0887303575873375 -0.08310703933238983 -0.09396155923604965 0.008116539567708969 0.145537868142128 -0.1230725422501564 0.18577222526073456 0.09878364950418472 0.17341504991054535 -0.004587167873978615 0.040488556027412415 0.12071027606725693 -0.14003321528434753 0.07613811641931534 -0.03746470436453819 0.09287603199481964 -0.07438613474369049 -0.02943096123635769 0.004380144644528627 0.03776661679148674 -0.05562032014131546 -0.07442916929721832 -0.046722300350666046 -0.05170993506908417 -0.012465965934097767 -0.046570755541324615 -0.14434920251369476 0.03171899914741516 -0.009277055971324444 0.08814354985952377 0.061312634497880936 0.06569306552410126 -0.17372554540634155 -0.04665116220712662 0.07114892452955246 0.14822040498256683 -0.08899334073066711 0.007773666176944971 0.23634691536426544 0.12482897937297821 -0.11595048010349274 0.03987937793135643 6.961105100344867E-5 0.007175734732300043 0.012604224495589733 0.014926102943718433 -7.039069314487278E-4 -0.0059869010001420975 -0.03221016749739647 0.02215190790593624 0.050042953342199326 0.21091574430465698 -0.0662127211689949 -0.10805461555719376 0.08595287054777145 -0.10954708606004715 -0.027701398357748985 -0.0556938536465168 -0.09191250801086426 -0.04343944415450096 -0.11684565991163254 0.06479763984680176 -0.06298601627349854 0.18938302993774414 0.07188659906387329 0.02497859299182892 0.08137103915214539 -0.11976279318332672 0.008739004842936993 -0.16307789087295532 -0.011443675495684147 0.10001112520694733 -0.0770021602511406 -0.08322988450527191 0.060525521636009216 -0.15432554483413696 0.06561030447483063 0.009179810993373394 0.0025662663392722607 0.1302662044763565 -0.2215537130832672 -9.130092803388834E-4 0.04472756013274193 -0.1573658138513565 0.004254467319697142 0.03724971413612366 0.023874344304203987 -0.21085737645626068 -0.027622031047940254 0.07672369480133057 0.04049595072865486 -0.15889929234981537 -0.04455786198377609 -0.03419201448559761 -0.04706417769193649 -0.03122512251138687 6.832624203525484E-4 0.07098141312599182 -0.14398227632045746 0.03331741690635681 0.01150488667190075 -0.0584246926009655 0.09739822894334793 0.11450411379337311 -0.032552897930145264 0.20057235658168793 -0.027423353865742683 -0.07366877049207687 -0.052380725741386414 0.005686615593731403 0.0960954874753952 0.005397285334765911 0.05978301912546158 -0.09247684478759766 -0.12578028440475464 0.05006251111626625 -0.16604039072990417 0.14874503016471863 -0.03036094829440117 0.02855561301112175 0.03684309124946594 -0.145387664437294 0.0640413761138916 -0.06779491156339645 -0.11015240848064423 0.19522474706172943 0.19402918219566345 -0.04162908345460892 -0.09704510867595673 -0.07789111882448196 0.034894801676273346 -0.1499384492635727 0.015487642958760262 -0.017121799290180206
would -0.033943090587854385 -0.08731045573949814 0.12697269022464752 -0.049733564257621765 -0.030374012887477875 0.06281591206789017 -0.34479281306266785 0.19490951299667358 -0.022053631022572517 0.17961877584457397 0.00369425886310637 -0.02080908790230751 0.0278962180018425 -0.1143622025847435 -0.008895819075405598 -0.2417084276676178 0.02648117020726204 0.12277942895889282 0.03878315910696983 -0.059587862342596054 0.04374368116259575 -0.05090411752462387 0.16952307522296906 -0.0018744117114692926 0.08292815834283829 -0.0017592136282473803 -0.10347378253936768 0.011639392003417015 -0.06472530961036682 0.06054823845624924 -0.17527039349079132 -0.1706167757511139 -0.027620553970336914 0.21934185922145844 -0.034683141857385635 0.008708580397069454 0.12476233392953873 0.12262862920761108 -0.035572223365306854 0.06628718227148056 -0.06970704346895218 -0.11975941061973572 0.015312662348151207 0.033727556467056274 0.03807822987437248 -0.11921989917755127 -0.0034344939049333334 -0.009425691328942776 0.0807790532708168 -0.08694406598806381 -0.10491294413805008 -0.07622380554676056 -0.003841571044176817 -0.21193091571331024 0.002812897088006139 -0.0029255736153572798 -0.14960895478725433 -0.16184590756893158 -0.1344321221113205 -0.11096960306167603 -0.05128910765051842 -0.022969651967287064 0.0597185343503952 0.061121534556150436 -0.18160709738731384 -0.004082590341567993 -0.02730221301317215 0.06386369466781616 -0.06910573691129684 -0.0071488190442323685 -0.10556934773921967 -0.06785744428634644 0.06823871284723282 -0.06405553221702576 -0.049850400537252426 0.005802555941045284 -0.08177734911441803 -0.1551208794116974 0.01668737828731537 0.12508425116539001 -0.005347758065909147 -0.14630194008350372 0.06453005224466324 -0.046515658497810364 0.2743171751499176 0.10344009846448898 0.14871011674404144 0.035745278000831604 0.02291851118206978 0.02032373659312725 -0.03904309123754501 -0.05235785245895386 0.2570497691631317 0.10178553313016891 -0.003059043549001217 -0.03697049617767334 0.1320972442626953 -0.05348288267850876 0.08370683342218399 -0.03764158487319946 -0.04371831193566322 -0.0790930986404419 -0.0317281112074852 -0.12804020941257477 0.03042115829885006 0.16754961013793945 0.07865016162395477 0.033759817481040955 0.08917281776666641 -0.16116829216480255 -0.0287932138890028 -0.1499665528535843 0.11406732350587845 0.05097182095050812 -9.022440644912422E-4 0.07671190053224564 0.16551895439624786 0.05407283827662468 -0.13459844887256622 -0.014870760031044483 -0.05184376984834671 0.09190182387828827 0.02875649183988571 0.1691903918981552 0.09301605075597763 0.05743810534477234 0.21016794443130493 0.1499580442905426 -0.1789335012435913 -0.03453364595770836 0.11220734566450119 -0.046974826604127884 -0.12234590947628021 0.019078196957707405 0.18846505880355835 0.001852377550676465 0.22016401588916779 0.23685972392559052 0.14105729758739471 -0.053121570497751236 0.1911194771528244 -0.08027670532464981 0.14827029407024384 0.08010860532522202 0.08365146815776825 -0.04507395625114441 0.12802980840206146 0.13607481122016907 0.09950007498264313 0.09515198320150375 0.11329466849565506 0.005206367000937462 0.03007262386381626 0.055264949798583984 0.027435772120952606 0.043209806084632874 -0.06634541600942612 0.0957099199295044 0.029189134016633034 -0.057977598160505295 0.08981386572122574 -0.10979900509119034 0.049270451068878174 -0.09864554554224014 -0.14355143904685974 -0.04159783944487572 -0.11106303334236145 -0.1111638993024826 -0.12029387056827545 0.02006305195391178 0.1780400425195694 -0.16511575877666473 0.23749852180480957 0.08165385574102402 0.18254129588603973 0.01780744083225727 0.06496798992156982 0.09359601885080338 -0.16235126554965973 0.09372169524431229 -0.048530079424381256 0.13353750109672546 -0.08856543898582458 -0.006549326237291098 0.05153479054570198 0.06784473359584808 -0.03709397092461586 -0.08428356051445007 -0.052853673696517944 -0.07575681060552597 -0.014936533756554127 -0.03338462859392166 -0.16156083345413208 0.10313495248556137 0.0024329982697963715 0.11121612787246704 0.0866197794675827 0.0768527090549469 -0.18611301481723785 -0.06796439737081528 0.1055879294872284 0.1578017622232437 -0.08895780891180038 0.03604113310575485 0.26013538241386414 0.17225730419158936 -0.13053502142429352 0.0489705353975296 0.014031738042831421 0.010641252622008324 0.018889011815190315 -0.002431477652862668 1.3863771164324135E-4 -0.042534857988357544 -0.0518309623003006 0.0066774203442037106 0.060847148299217224 0.2873285114765167 -0.06650802493095398 -0.12312670797109604 0.09576662629842758 -0.16017094254493713 -0.04962163418531418 -0.09307283908128738 -0.07504275441169739 -0.08905946463346481 -0.11687226593494415 0.04361804574728012 -0.07653453946113586 0.19899789988994598 0.07852566242218018 0.0319693423807621 0.11564219743013382 -0.11541327834129333 0.0039083827286958694 -0.17394320666790009 -0.024230677634477615 0.12986283004283905 -0.05220022425055504 -0.11213593184947968 0.019058512523770332 -0.14304743707180023 0.06659198552370071 0.015455375425517559 0.029336756095290184 0.15786640346050262 -0.20606277883052826 0.021559717133641243 0.023609869182109833 -0.1340712010860443 -0.027596326544880867 0.05110183358192444 0.06871511042118073 -0.20826785266399384 -0.040517657995224 0.056188277900218964 0.04096321761608124 -0.20422810316085815 -0.06649387627840042 -0.007045363076031208 -0.025467749685049057 -4.7613197239115834E-4 -0.02132035791873932 0.10522596538066864 -0.14736978709697723 0.053704824298620224 0.07139556854963303 -0.03235432133078575 0.11661406606435776 0.11686783283948898 -0.04250060021877289 0.24031439423561096 0.011967823840677738 -0.0734337568283081 -0.08488932251930237 0.029737340286374092 0.07968633621931076 0.046200141310691833 -0.0023577881511300802 -0.11753011494874954 -0.10275115817785263 0.018526650965213776 -0.17289306223392487 0.1688353270292282 -0.0553634949028492 0.0433589369058609 0.041341111063957214 -0.19168789684772491 0.08794817328453064 -0.08252884447574615 -0.08046718686819077 0.2633073031902313 0.20100916922092438 -0.07397213578224182 -0.09983965009450912 -0.11445347964763641 0.029094064608216286 -0.19802293181419373 0.009068626910448074 -0.02865840494632721
because -0.017682455480098724 -0.08678660541772842 0.13594241440296173 -0.033592112362384796 -0.036760859191417694 0.08046191185712814 -0.3145906329154968 0.20572559535503387 0.002207734389230609 0.1281806379556656 0.00822050217539072 -0.03229222074151039 0.009904277510941029 -0.10240641981363297 -0.02092846669256687 -0.18995510041713715 0.03254630044102669 0.1180548220872879 0.054807234555482864 -0.07769130915403366 0.04796404018998146 -0.05552384629845619 0.16377297043800354 -0.009704046882689 0.09167211502790451 -0.024158651009202003 -0.09365299344062805 0.023514315485954285 -0.040601857006549835 0.0335906557738781 -0.1600562036037445 -0.1497504711151123 -0.02203116938471794 0.21494272351264954 -0.06563200056552887 -0.0051114438101649284 0.0853210985660553 0.08074887841939926 -0.03317146375775337 0.06472805887460709 -0.06455434858798981 -0.09639137983322144 0.007334504276514053 0.029659651219844818 -0.007962280884385109 -0.1291462928056717 -0.028631102293729782 -3.44059408234898E-5 0.07431978732347488 -0.09907277673482895 -0.11373111605644226 -0.05873050540685654 0.005905144847929478 -0.19899141788482666 0.0039559658616781235 -0.015895383432507515 -0.1518762707710266 -0.168330118060112 -0.11106453835964203 -0.09228533506393433 -0.04467549920082092 -0.0037869452498853207 0.06851566582918167 0.03564510866999626 -0.1630811095237732 0.0013194575440138578 -0.006006537936627865 0.09019766747951508 -0.06018522381782532 2.469104656483978E-4 -0.09474660456180573 -0.0445062555372715 0.07065360248088837 -0.06489352136850357 -0.057763222604990005 0.023434404283761978 -0.08972197771072388 -0.12431532889604568 0.02384576015174389 0.1347169280052185 0.02672659605741501 -0.11231029033660889 0.06838477402925491 -0.036687493324279785 0.2426561713218689 0.07998783886432648 0.14468106627464294 -0.003480471670627594 0.006319275125861168 -0.005434513557702303 -0.015586634166538715 -0.05189364776015282 0.24276697635650635 0.07843112200498581 0.001138962572440505 -0.06396350264549255 0.13504180312156677 -0.057252947241067886 0.06850487738847733 -0.05448330193758011 -0.05870331823825836 -0.08252651989459991 -0.017674196511507034 -0.116789810359478 0.03360795974731445 0.15452706813812256 0.06167501211166382 0.038477636873722076 0.09367270767688751 -0.12479977309703827 -0.03270649164915085 -0.12272211909294128 0.1157493144273758 0.08593745529651642 -0.01994883082807064 0.08737783133983612 0.13373126089572906 0.022053265944123268 -0.11153117567300797 -0.037579189985990524 -0.03598089516162872 0.0822451189160347 0.059590842574834824 0.14629487693309784 0.08176402002573013 0.04251580312848091 0.20951895415782928 0.11772747337818146 -0.1337173879146576 -0.008068297989666462 0.09286317229270935 -0.057762838900089264 -0.14016321301460266 0.026523390784859657 0.19106371700763702 0.03396831080317497 0.2034958302974701 0.20211121439933777 0.12754158675670624 -0.02867111749947071 0.18437466025352478 -0.06749148666858673 0.13830339908599854 0.07344213873147964 0.07812456041574478 -0.04059358686208725 0.10342978686094284 0.11471378058195114 0.11213964968919754 0.08855456113815308 0.08567342907190323 -0.007892554625868797 0.01830573007464409 0.06704894453287125 0.03109627030789852 0.038522347807884216 -0.06497056037187576 0.05824686214327812 -2.3357821919489652E-4 -0.04976700618863106 0.09634847939014435 -0.0888434574007988 0.056765343993902206 -0.11725039780139923 -0.10781398415565491 0.00907160434871912 -0.09879939258098602 -0.09490326046943665 -0.10676858574151993 0.010790747590363026 0.15543930232524872 -0.13638310134410858 0.20404471457004547 0.0992569699883461 0.1781976819038391 0.001400271081365645 0.04561709240078926 0.11682873964309692 -0.15126778185367584 0.08674200624227524 -0.04087990149855614 0.10756136476993561 -0.07800004631280899 -0.02400452271103859 0.01962020806968212 0.04729136452078819 -0.05235588550567627 -0.07854188233613968 -0.04912790283560753 -0.06137751042842865 -0.015151780098676682 -0.04369398579001427 -0.1561250537633896 0.05248893424868584 -0.008952224627137184 0.09944013506174088 0.07124486565589905 0.06958410143852234 -0.18443451821804047 -0.0529315359890461 0.08133519440889359 0.15605856478214264 -0.09085875004529953 0.016699181869626045 0.25164347887039185 0.14035038650035858 -0.12535305321216583 0.04384133592247963 0.004940144717693329 0.005673689302057028 0.014084613882005215 0.0110243558883667 8.672885596752167E-4 -0.01677345670759678 -0.039767228066921234 0.020176643505692482 0.052349936217069626 0.23523788154125214 -0.07017217576503754 -0.11784787476062775 0.0916241779923439 -0.12544414401054382 -0.03378073871135712 -0.06724575161933899 -0.09025292098522186 -0.05540669336915016 -0.12213237583637238 0.05895265191793442 -0.06867077201604843 0.19903729856014252 0.07832244038581848 0.027962137013673782 0.09394731372594833 -0.12115373462438583 0.006682550068944693 -0.16888320446014404 -0.015816928818821907 0.10946835577487946 -0.0723988264799118 -0.09369608014822006 0.05133552476763725 -0.15857277810573578 0.06745992600917816 0.010245938785374165 0.011932343244552612 0.14049533009529114 -0.2215779572725296 0.001902153599075973 0.03820188716053963 -0.15357355773448944 -0.002112983027473092 0.039994653314352036 0.03688444197177887 -0.21463929116725922 -0.029823437333106995 0.07323333621025085 0.043130286037921906 -0.17504744231700897 -0.04831155762076378 -0.030738558620214462 -0.04097926989197731 -0.024789128452539444 -0.007727124262601137 0.08322284370660782 -0.15128493309020996 0.041430309414863586 0.026009729132056236 -0.05155741795897484 0.10712781548500061 0.11997773498296738 -0.036096151918172836 0.21837840974330902 -0.01590404100716114 -0.07919515669345856 -0.0630248561501503 0.012495934963226318 0.09392587840557098 0.014336643740534782 0.045535214245319366 -0.10037512332201004 -0.12078716605901718 0.041536297649145126 -0.17349889874458313 0.15706154704093933 -0.03633158653974533 0.03197057172656059 0.039174795150756836 -0.16163857281208038 0.0701393336057663 -0.07140704989433289 -0.10385188460350037 0.2220708131790161 0.20296341180801392 -0.04866919293999672 -0.10126156359910965 -0.09337525814771652 0.032078664749860764 -0.16749104857444763 0.013237165287137032 -0.022361136972904205
state -0.006800948176532984 -0.08675514906644821 0.13170459866523743 -0.024124013260006905 -0.02969975769519806 0.08863520622253418 -0.28104063868522644 0.19547709822654724 0.009471055120229721 0.09671076387166977 0.006382886320352554 -0.03637220337986946 0.0015218366170302033 -0.08871302753686905 -0.027563655748963356 -0.15834830701351166 0.034848399460315704 0.11096903681755066 0.0518752783536911 -0.08136051148176193 0.05219544097781181 -0.05661715194582939 0.1513630747795105 -0.015085737220942974 0.09367154538631439 -0.03250722587108612 -0.09058351814746857 0.031790051609277725 -0.028842177242040634 0.02273833006620407 -0.14730364084243774 -0.1326291263103485 -0.020327040925621986 0.1977912038564682 -0.07076063007116318 -0.006426298525184393 0.060480743646621704 0.05814655125141144 -0.031341638416051865 0.058174967765808105 -0.05871223658323288 -0.07653522491455078 0.004112073220312595 0.027219392359256744 -0.02691577561199665 -0.1291680783033371 -0.037492457777261734 9.502323810011148E-4 0.06918608397245407 -0.09649766236543655 -0.11224038898944855 -0.049421533942222595 0.005698783323168755 -0.18469597399234772 8.55497142765671E-4 -0.027671517804265022 -0.14205649495124817 -0.15928341448307037 -0.09524217247962952 -0.08144856989383698 -0.0415496863424778 0.003500525373965502 0.06717273592948914 0.020245075225830078 -0.15189960598945618 0.00880153477191925 -3.619573835749179E-4 0.09509990364313126 -0.05253457650542259 0.0010188622400164604 -0.0876372903585434 -0.032532624900341034 0.06858523190021515 -0.05852276459336281 -0.05537387356162071 0.031300514936447144 -0.08969411998987198 -0.10502944886684418 0.03206247836351395 0.13654811680316925 0.04153518006205559 -0.09922461956739426 0.06851129978895187 -0.0276127140969038 0.21279115974903107 0.06349264085292816 0.1330333650112152 -0.026209959760308266 6.648573908023536E-4 -0.01772446557879448 -0.004630971699953079 -0.05181966722011566 0.22406801581382751 0.0665004625916481 -0.004267449490725994 -0.07073432207107544 0.12897932529449463 -0.0572996623814106 0.06169232726097107 -0.0548115037381649 -0.06063868850469589 -0.07690759748220444 -0.00367146753706038 -0.1106414869427681 0.028835760429501534 0.1402696967124939 0.04977300763130188 0.03467033803462982 0.09197760373353958 -0.09786761552095413 -0.03311362490057945 -0.1100308895111084 0.11275950819253922 0.09705071151256561 -0.025579039007425308 0.0819004699587822 0.11545401811599731 0.004558040294796228 -0.09508571773767471 -0.048860739916563034 -0.03183053806424141 0.07622521370649338 0.06807132065296173 0.12808342278003693 0.07059864699840546 0.03641316294670105 0.19518649578094482 0.09381822496652603 -0.10937861353158951 0.005436105653643608 0.0836191400885582 -0.057786036282777786 -0.1378626972436905 0.027592364698648453 0.18080869317054749 0.04458107426762581 0.1831819713115692 0.17781855165958405 0.11137424409389496 -0.018024317920207977 0.1780870109796524 -0.051088470965623856 0.12348757684230804 0.0732264593243599 0.06379228830337524 -0.034169118851423264 0.08731802552938461 0.10267847031354904 0.11041274666786194 0.07874072343111038 0.06910794973373413 -0.015621769241988659 0.01386487390846014 0.06642260402441025 0.029754966497421265 0.034270986914634705 -0.057641610503196716 0.044384539127349854 -0.015164468437433243 -0.03465563431382179 0.08646916598081589 -0.0746142789721489 0.058353520929813385 -0.12049157172441483 -0.08854860812425613 0.02685621753334999 -0.08207130432128906 -0.08262825757265091 -0.09192031621932983 0.009028463624417782 0.14147527515888214 -0.11369166523218155 0.17639502882957458 0.09982124716043472 0.17171582579612732 -0.004899272229522467 0.03959229588508606 0.12319730222225189 -0.1360761821269989 0.07147002965211868 -0.03147585317492485 0.08811628073453903 -0.07131857424974442 -0.030545683577656746 2.7702972874976695E-4 0.03255196288228035 -0.05407639965415001 -0.07579372078180313 -0.04265517368912697 -0.05030011385679245 -0.014581681229174137 -0.04925965517759323 -0.1407899111509323 0.029454274103045464 -0.015877464786171913 0.08739519864320755 0.056538164615631104 0.05756525695323944 -0.17028839886188507 -0.04752671346068382 0.0665346309542656 0.1455298662185669 -0.08567070960998535 0.0019068733090534806 0.2334701269865036 0.12224117666482925 -0.11024181544780731 0.04196133837103844 0.0011111400090157986 0.007156279869377613 0.013298415578901768 0.019038014113903046 -0.007082232274115086 -0.005865038372576237 -0.028221478685736656 0.019140614196658134 0.04493960365653038 0.20475910604000092 -0.06198570132255554 -0.10345353186130524 0.0835585817694664 -0.10751128196716309 -0.022609693929553032 -0.0547201968729496 -0.08859845250844955 -0.04211237281560898 -0.1158343255519867 0.06010322645306587 -0.058652523905038834 0.183539018034935 0.06813687831163406 0.02362152934074402 0.07915015518665314 -0.1116819679737091 0.012207959778606892 -0.15778261423110962 -0.013826249167323112 0.0961637794971466 -0.07492243498563766 -0.08736766129732132 0.059434451162815094 -0.15001150965690613 0.06110483035445213 0.00835919938981533 0.0015980281168594956 0.12515302002429962 -0.21948198974132538 -0.0011615040712058544 0.04206257686018944 -0.1589651107788086 0.004733314272016287 0.03670808672904968 0.02184600941836834 -0.20720134675502777 -0.029080048203468323 0.07704045623540878 0.043700914829969406 -0.1546269953250885 -0.04517187178134918 -0.03421766683459282 -0.04456387087702751 -0.03449232503771782 8.933648350648582E-4 0.07220328599214554 -0.1423911154270172 0.02911464124917984 0.0057404786348342896 -0.05665448307991028 0.09519264847040176 0.10925976932048798 -0.028224006295204163 0.19309400022029877 -0.03220934420824051 -0.07092415541410446 -0.04654284194111824 0.0033681350760161877 0.09514306485652924 0.0024808726739138365 0.06397935003042221 -0.08759676665067673 -0.12885203957557678 0.053905997425317764 -0.16419832408428192 0.13955244421958923 -0.02845255471765995 0.03141907975077629 0.0335044302046299 -0.14145350456237793 0.05919116362929344 -0.06318055838346481 -0.11001015454530716 0.18493473529815674 0.1950455904006958 -0.03325459733605385 -0.09699378162622452 -0.07614566385746002 0.03440142050385475 -0.1446884721517563 0.01334770955145359 -0.014122574590146542
they -0.06942426413297653 -0.06671688705682755 0.1772085726261139 -0.07878962904214859 -0.0045473636128008366 0.08452749997377396 -0.3673803508281708 0.11427699774503708 -0.06792806833982468 0.19969891011714935 0.027080358937382698 -5.123563460074365E-4 0.06112825125455856 -0.11707276105880737 -0.024868667125701904 -0.26734820008277893 -0.05404377356171608 0.10896267741918564 0.012914051301777363 7.392565021291375E-4 0.10982111841440201 -0.01598561368882656 0.198244109749794 -0.00924257468432188 0.08869210630655289 0.01970733515918255 -0.19163045287132263 -0.008350943215191364 -0.07412263005971909 0.1095035970211029 -0.21769976615905762 -0.21346400678157806 -0.040197890251874924 0.2798031270503998 0.028572242707014084 0.11085332185029984 0.1915614753961563 0.18148450553417206 -0.07002142816781998 0.013283498585224152 -0.038795653730630875 -0.11124273389577866 0.0426960326731205 -0.0021297421772032976 0.07075665891170502 -0.09995505958795547 -0.026410216465592384 -0.04889490082859993 0.11762425303459167 -0.01679869368672371 -0.09856004267930984 -0.12119172513484955 -0.01985984295606613 -0.2721702754497528 -0.011430296115577221 0.008626427501440048 -0.12786522507667542 -0.18088142573833466 -0.13312768936157227 -0.11780539900064468 -0.044910773634910583 0.02605602703988552 0.020821375772356987 0.10580578446388245 -0.17894761264324188 -0.009561117738485336 -0.09453033655881882 0.01667824201285839 -0.04768120124936104 0.0028907444793730974 -0.16376051306724548 -0.12541525065898895 0.03774307668209076 0.009124606847763062 -0.015279158018529415 0.04419555515050888 -0.09164141863584518 -0.08504172414541245 0.026101483032107353 0.17339839041233063 -0.07475794106721878 -0.20466753840446472 0.03751952946186066 -0.07385148108005524 0.2590191960334778 0.07689221948385239 0.19374169409275055 0.10780557990074158 0.044669874012470245 0.005242545623332262 -0.12341569364070892 -0.08843924105167389 0.2745775580406189 0.17449922859668732 0.011629728600382805 0.03230929374694824 0.15986208617687225 -0.06923694163560867 0.0794711709022522 0.05206061899662018 0.01636008732020855 -0.02522174082696438 -0.009645278565585613 -0.20003043115139008 -0.008462800644338131 0.11616159975528717 0.014918653294444084 -0.00794911477714777 0.09047898650169373 -0.20243023335933685 -0.10438890755176544 -0.23293253779411316 0.11591369658708572 0.05539648234844208 -0.03584374114871025 0.02185201458632946 0.2780746519565582 0.09735554456710815 -0.13449960947036743 -0.021784357726573944 -0.053824570029973984 0.10577411204576492 -0.048792868852615356 0.15810394287109375 0.13359291851520538 0.09206177294254303 0.2000947743654251 0.16323210299015045 -0.17596305906772614 -0.060550667345523834 0.17941232025623322 -0.0702071487903595 -0.07504592090845108 -0.03238295763731003 0.15021155774593353 -0.008363260887563229 0.2533910274505615 0.25745388865470886 0.06404640525579453 -0.05513866990804672 0.21961407363414764 -0.09619845449924469 0.1247355192899704 0.12722228467464447 0.06231508031487465 -0.019485175609588623 0.20444521307945251 0.16222241520881653 0.0654449462890625 0.09320913255214691 0.1449504941701889 0.002300446620211005 0.06958434730768204 0.013832923024892807 -0.02296093851327896 -0.031103361397981644 -0.05260676518082619 0.17479418218135834 0.006079430226236582 -0.06742942333221436 0.027002157643437386 -0.18958880007266998 0.028752582147717476 -0.09143466502428055 -0.1273924559354782 -0.08313512802124023 -0.10180427879095078 -0.20000073313713074 -0.15087930858135223 0.02807016670703888 0.17922881245613098 -0.13453519344329834 0.22846513986587524 0.048702385276556015 0.18365395069122314 0.017883596941828728 0.09718138724565506 0.1197231113910675 -0.12255511432886124 0.0108357984572649 -0.055960763245821 0.1680738925933838 -0.11977508664131165 0.051138266921043396 0.13563072681427002 0.04501985386013985 -0.05227767676115036 -0.11497848480939865 -0.05540887638926506 -0.10716574639081955 -0.05769949406385422 -0.027614358812570572 -0.15824128687381744 0.22957690060138702 -0.06337607651948929 0.1535545140504837 0.0764724537730217 -0.019243398681282997 -0.16931740939617157 -0.12603585422039032 0.14999954402446747 0.1816430687904358 -0.07732509076595306 0.060603078454732895 0.3050709664821625 0.20780318975448608 -0.08487959951162338 0.056588247418403625 0.021249813959002495 0.029324494302272797 0.028119750320911407 0.023758240044116974 -0.02189147286117077 -0.07756977528333664 -0.06900326162576675 -0.031120343133807182 0.06016752868890762 0.3712771534919739 -0.04112755134701729 -0.06623581796884537 0.05594583973288536 -0.18359015882015228 -0.010645780712366104 -0.1346990317106247 0.0016442524502053857 -0.15777809917926788 -0.14843454957008362 -0.023848028853535652 -0.06596098840236664 0.14570443332195282 0.06359324604272842 0.07024677097797394 0.14685457944869995 -0.018448838964104652 0.04144144803285599 -0.1409314125776291 -0.06920694559812546 0.11021270602941513 0.03772656247019768 -0.2516968846321106 -0.02765052765607834 -0.1059538945555687 -0.011959581635892391 0.06937694549560547 0.06082907319068909 0.19440607726573944 -0.19691689312458038 0.0353555902838707 0.01576583832502365 -0.10898657888174057 -0.07460114359855652 0.054164446890354156 0.11140897125005722 -0.17032261192798615 -0.043276347219944 0.021655598655343056 0.07471521198749542 -0.23522688448429108 -0.06973600387573242 0.01672310195863247 0.030002042651176453 0.01830846443772316 -0.09775424003601074 0.15978074073791504 -0.06294400990009308 0.021312179043889046 0.11338125914335251 0.01947401650249958 0.11771105974912643 0.05314619094133377 -0.02076053060591221 0.2396676391363144 -0.0038227855693548918 -0.06111478805541992 -0.06925657391548157 0.009482724592089653 0.014802098274230957 0.052434973418712616 -0.03399219363927841 -0.11027141660451889 -0.15345658361911774 -0.023497004061937332 -0.14433826506137848 0.09979135543107986 -0.045508287847042084 0.052474334836006165 0.03712322562932968 -0.1956440508365631 0.09448854625225067 -0.08599451184272766 -0.04062323272228241 0.30072808265686035 0.25946953892707825 -0.03734241798520088 -0.10287074744701385 -0.14453743398189545 0.042635150253772736 -0.22371245920658112 -0.018766481429338455 0.027633899822831154
you -0.09743154048919678 -0.05218357965350151 0.17972812056541443 -0.11053656786680222 0.01638859324157238 0.05225416272878647 -0.37230944633483887 0.0943513959646225 -0.09316752851009369 0.25089842081069946 0.03309314697980881 0.01863023079931736 0.07873706519603729 -0.1347408890724182 -0.013146666809916496 -0.31749019026756287 -0.06974035501480103 0.10451272875070572 0.0018314510816708207 0.02884756028652191 0.11559905111789703 0.001271043554879725 0.18086959421634674 -0.005983193404972553 0.07527519017457962 0.06994481384754181 -0.19620271027088165 -0.011759622022509575 -0.09729807823896408 0.12564170360565186 -0.23292803764343262 -0.23679696023464203 -0.03289031609892845 0.2997315227985382 0.05354094132781029 0.12178399413824081 0.23374046385288239 0.2143738567829132 -0.05311975255608559 0.017674285918474197 -0.020929355174303055 -0.13490404188632965 0.06693378835916519 -0.01955839805305004 0.13131554424762726 -0.06099319830536842 -0.010314877144992352 -0.056049589067697525 0.12626604735851288 -0.002713578287512064 -0.0773971900343895 -0.1513105034828186 -0.027674823999404907 -0.2794606685638428 -0.001466728514060378 0.03946082666516304 -0.10870540887117386 -0.17665155231952667 -0.15016211569309235 -0.10970349609851837 -0.05352385342121124 -0.007096702698618174 -0.0015578760067000985 0.1474144458770752 -0.19253508746623993 -0.01880631037056446 -0.10914957523345947 -0.020143410190939903 -0.05244242772459984 6.965736392885447E-4 -0.16811935603618622 -0.16884860396385193 0.03035798668861389 0.02803983725607395 0.011889969930052757 0.024218279868364334 -0.08059664815664291 -0.08607566356658936 0.02150847390294075 0.16320712864398956 -0.12100003659725189 -0.24227845668792725 0.038739219307899475 -0.07912003248929977 0.2637234032154083 0.08609583228826523 0.2032068818807602 0.15665090084075928 0.072699174284935 0.04377562925219536 -0.15404656529426575 -0.08508215099573135 0.27753540873527527 0.21733464300632477 0.012509501539170742 0.05941935256123543 0.15536274015903473 -0.06579232960939407 0.08363856375217438 0.07442464679479599 0.037450894713401794 -0.026288142427802086 -0.02254883013665676 -0.20748034119606018 0.002035426674410701 0.11085714399814606 0.024234000593423843 -0.025221962481737137 0.07385331392288208 -0.23860405385494232 -0.11597887426614761 -0.25889623165130615 0.10676597058773041 0.024007879197597504 -0.025196287781000137 0.0017907281871885061 0.3220236003398895 0.1314971148967743 -0.1431741565465927 0.008726092986762524 -0.07531490176916122 0.12061934173107147 -0.09845399856567383 0.17918545007705688 0.15116611123085022 0.11414146423339844 0.2045843005180359 0.2095155268907547 -0.21512776613235474 -0.078185074031353 0.20403426885604858 -0.06201719865202904 -0.06076739728450775 -0.0661117434501648 0.14555391669273376 -0.04620543122291565 0.2687509059906006 0.2785455286502838 0.0750616043806076 -0.0953364223241806 0.21514557301998138 -0.11184173077344894 0.1397024691104889 0.12329604476690292 0.0567614920437336 -0.022057581692934036 0.22260449826717377 0.16873019933700562 0.040550339967012405 0.09888846427202225 0.16855792701244354 0.01952957734465599 0.07833772152662277 -0.002135693095624447 -0.029121406376361847 -0.036192502826452255 -0.057438116520643234 0.20736047625541687 0.026450140401721 -0.07106868922710419 0.02021968737244606 -0.21011340618133545 0.014810032211244106 -0.04852868616580963 -0.1475689858198166 -0.13856880366802216 -0.13036586344242096 -0.2306339591741562 -0.17836831510066986 0.030097873881459236 0.1915464997291565 -0.16226164996623993 0.26698195934295654 0.031199371442198753 0.17564070224761963 0.03199614956974983 0.11986823379993439 0.09616941958665848 -0.11761301010847092 0.021736448630690575 -0.06051285192370415 0.18855921924114227 -0.13098876178264618 0.06831227242946625 0.1786770522594452 0.07228054106235504 -0.04439253732562065 -0.11133246123790741 -0.04918621852993965 -0.134303018450737 -0.0664285197854042 -0.0030834500212222338 -0.1473243534564972 0.3064432144165039 -0.05002615600824356 0.172504261136055 0.08467477560043335 -0.01884724758565426 -0.1646786779165268 -0.17022651433944702 0.17414794862270355 0.1779123693704605 -0.07127922773361206 0.0929945707321167 0.3126447796821594 0.25294142961502075 -0.08606746047735214 0.05707843229174614 0.03565952554345131 0.03476447984576225 0.04397020861506462 0.020919091999530792 -0.01701059192419052 -0.10323397815227509 -0.08698028326034546 -0.057871244847774506 0.0688849464058876 0.4233068525791168 -0.04596046358346939 -0.06597729027271271 0.05365585535764694 -0.21988558769226074 -0.010571171529591084 -0.16643202304840088 0.02300267294049263 -0.19540493190288544 -0.13705138862133026 -0.0550931952893734 -0.08875038474798203 0.1564457267522812 0.0659494698047638 0.07242699712514877 0.16511137783527374 0.002448470564559102 0.03484013304114342 -0.12756533920764923 -0.07410292327404022 0.11809754371643066 0.07433979213237762 -0.2741648852825165 -0.05319211632013321 -0.07528384029865265 -0.03330662101507187 0.07791987806558609 0.08149620145559311 0.22216689586639404 -0.161006361246109 0.04435815289616585 -0.010028284043073654 -0.07617206126451492 -0.10957925021648407 0.05762350186705589 0.14562514424324036 -0.13993172347545624 -0.061871327459812164 -0.010963295586407185 0.0773487240076065 -0.2670048177242279 -0.08974030613899231 0.030102575197815895 0.04103028401732445 0.048371754586696625 -0.12115602940320969 0.18444907665252686 -0.037160422652959824 0.01262598391622305 0.15673702955245972 0.06045343354344368 0.13375598192214966 0.04251028969883919 -0.030935484915971756 0.27612200379371643 0.02758488431572914 -0.05822594463825226 -0.08885088562965393 0.029744913801550865 -0.006851122248917818 0.08486834168434143 -0.08514650166034698 -0.12409872561693192 -0.11909552663564682 -0.0670146718621254 -0.12823298573493958 0.1025061309337616 -0.06847013533115387 0.05306263267993927 0.047027360647916794 -0.21134546399116516 0.10146694630384445 -0.07986560463905334 -0.0031707254238426685 0.34417393803596497 0.2419101595878601 -0.061097074300050735 -0.09490340203046799 -0.16570009291172028 0.033236414194107056 -0.2508745491504669 -0.01834103837609291 0.027719993144273758
going -0.03752563148736954 -0.06550095975399017 0.12211959809064865 -0.05699698254466057 -0.05635731294751167 0.06125231459736824 -0.34268346428871155 0.18545225262641907 -0.019707001745700836 0.17732946574687958 0.01553723681718111 -0.025103354826569557 0.039298463612794876 -0.11690487712621689 -0.014377745799720287 -0.23048202693462372 0.013412410393357277 0.12953096628189087 0.03623943775892258 -0.05593200773000717 0.043372560292482376 -0.04449057579040527 0.1812431961297989 -0.005473070777952671 0.07222269475460052 -0.012761512771248817 -0.10431309789419174 0.005575086455792189 -0.05774602293968201 0.07300729304552078 -0.16073080897331238 -0.15933741629123688 -0.03320510312914848 0.22324593365192413 -0.022037243470549583 0.005983417388051748 0.1425912231206894 0.13260646164417267 -0.051810476928949356 0.04942481964826584 -0.07466460764408112 -0.11440293490886688 0.003115635132417083 0.03726430609822273 0.020205052569508553 -0.1298762559890747 -0.002070001792162657 -0.01920502819120884 0.08162184804677963 -0.07558996230363846 -0.09567153453826904 -0.07031244784593582 0.005410013720393181 -0.20122793316841125 0.015769829973578453 0.004147179424762726 -0.15879622101783752 -0.16399122774600983 -0.11655162274837494 -0.12312096357345581 -0.03234457969665527 -0.004696322605013847 0.06254466623067856 0.05605631694197655 -0.17315299808979034 -0.014129646122455597 -0.04118078574538231 0.06848789006471634 -0.07132644206285477 0.0016490716952830553 -0.09884751588106155 -0.06733604520559311 0.05579555779695511 -0.06867069005966187 -0.05969908833503723 0.019353464245796204 -0.08773515373468399 -0.16367407143115997 -0.0031620182562619448 0.12644214928150177 -0.010327136144042015 -0.13523609936237335 0.05487852171063423 -0.054134026169776917 0.2773036062717438 0.09947255998849869 0.1511198878288269 0.05188402161002159 0.023104365915060043 0.008428576402366161 -0.05856442451477051 -0.04334217309951782 0.2606581151485443 0.09146345406770706 0.001680582296103239 -0.03258942440152168 0.12956975400447845 -0.050808656960725784 0.08608373999595642 -0.03403184935450554 -0.0433209091424942 -0.07170911133289337 -0.030653217807412148 -0.12479222565889359 0.01471362542361021 0.16913188993930817 0.07655252516269684 0.029659328982234 0.0858939066529274 -0.17293432354927063 -0.029929887503385544 -0.1484382599592209 0.11647968739271164 0.05508820340037346 -0.004884703084826469 0.07829039543867111 0.16720518469810486 0.061521466821432114 -0.134751558303833 -0.02802865579724312 -0.027936985716223717 0.0732639878988266 0.030334455892443657 0.17555086314678192 0.08469940721988678 0.04416591674089432 0.20509344339370728 0.13258932530879974 -0.15997567772865295 -0.03463463857769966 0.1173340380191803 -0.054866284132003784 -0.13285712897777557 0.03758460655808449 0.19228467345237732 0.014446951448917389 0.20978015661239624 0.23868820071220398 0.1318410187959671 -0.049430955201387405 0.19484224915504456 -0.09526938945055008 0.13707400858402252 0.084398552775383 0.09495016187429428 -0.050520431250333786 0.149855837225914 0.12255129963159561 0.09479541331529617 0.10150253772735596 0.12013433128595352 8.683366468176246E-4 0.023811133578419685 0.060120224952697754 0.03456570580601692 0.03453715518116951 -0.06415896862745285 0.09619347751140594 0.026339363306760788 -0.0788063034415245 0.09504619240760803 -0.11284792423248291 0.051300838589668274 -0.10399451106786728 -0.1403248906135559 -0.018445223569869995 -0.10070626437664032 -0.11969390511512756 -0.1273435652256012 0.007241434883326292 0.1630116105079651 -0.15548479557037354 0.2273464798927307 0.08414267748594284 0.17836453020572662 0.009282190352678299 0.05787760391831398 0.0988943874835968 -0.1524541825056076 0.07879991829395294 -0.04845953360199928 0.1372629851102829 -0.09833848476409912 0.006969199050217867 0.07178342342376709 0.06397203356027603 -0.03854663670063019 -0.09289886802434921 -0.060716938227415085 -0.05719909816980362 -0.013541280291974545 -0.032271139323711395 -0.1696864366531372 0.09165767580270767 -0.012314025312662125 0.12103684991598129 0.09654225409030914 0.08292984962463379 -0.1964017003774643 -0.04849851503968239 0.12098968029022217 0.1598452627658844 -0.08717631548643112 0.047737155109643936 0.2510177195072174 0.16523364186286926 -0.13514511287212372 0.043890777975320816 0.004421960562467575 0.003095672931522131 0.0011735386215150356 -0.010396026074886322 0.0013568451395258307 -0.04651480168104172 -0.05965972691774368 0.016773220151662827 0.0656043216586113 0.27597418427467346 -0.07515954226255417 -0.12130987644195557 0.09422183781862259 -0.14847831428050995 -0.05142319202423096 -0.08399120718240738 -0.06582217663526535 -0.08491494506597519 -0.12556150555610657 0.03920211270451546 -0.07009611278772354 0.20109736919403076 0.08603024482727051 0.056807741522789 0.12423346191644669 -0.13176842033863068 0.013617814518511295 -0.17244234681129456 -0.03907940164208412 0.13209353387355804 -0.051549557596445084 -0.1132926419377327 0.018047189339995384 -0.15877345204353333 0.055988796055316925 0.02521730400621891 0.018477631732821465 0.15340645611286163 -0.2085215300321579 0.01600806973874569 0.027117280289530754 -0.12406573444604874 -0.015036726370453835 0.04991741478443146 0.07103637605905533 -0.2051418423652649 -0.029124552384018898 0.05726880952715874 0.03996460512280464 -0.19819198548793793 -0.04188579320907593 -0.014374806545674801 -0.00851653702557087 0.004556102678179741 -0.026623763144016266 0.09982761740684509 -0.14266613125801086 0.06940820813179016 0.07312066107988358 -0.04486089199781418 0.10191342979669571 0.11133946478366852 -0.03598279133439064 0.22785568237304688 0.011827868409454823 -0.07797946780920029 -0.07818067073822021 0.012917155399918556 0.07329617440700531 0.05161173269152641 -0.013726509176194668 -0.11471328139305115 -0.10716737061738968 0.015449621714651585 -0.1636800467967987 0.16256465017795563 -0.04923837259411812 0.04112977534532547 0.05650012567639351 -0.17414093017578125 0.09622439742088318 -0.09276913851499557 -0.0638241171836853 0.2658284306526184 0.20156973600387573 -0.06966535747051239 -0.0951581820845604 -0.12362675368785858 0.01468802709132433 -0.19890645146369934 0.013322409242391586 -0.0304386205971241
old -0.008972959592938423 -0.09018636494874954 0.14484316110610962 -0.0283453818410635 -0.04069533571600914 0.0922342911362648 -0.3072177767753601 0.21035635471343994 0.011974487453699112 0.11174460500478745 0.010412891395390034 -0.0444839783012867 0.006171445827931166 -0.09659768640995026 -0.031241925433278084 -0.17525330185890198 0.03222708776593208 0.12271568924188614 0.05404578149318695 -0.08543799817562103 0.05642712116241455 -0.05830468609929085 0.1701584905385971 -0.020899906754493713 0.10233046859502792 -0.036159321665763855 -0.09564091265201569 0.03541014343500137 -0.03279891237616539 0.030432242900133133 -0.15901154279708862 -0.14101488888263702 -0.022985275834798813 0.2126586139202118 -0.07165166735649109 -0.008585517294704914 0.07192272692918777 0.06526558846235275 -0.03977721184492111 0.05463152378797531 -0.06458142399787903 -0.08360704779624939 4.322205495554954E-4 0.031193016096949577 -0.02912844531238079 -0.14227429032325745 -0.040973059833049774 2.956140669994056E-4 0.07123897969722748 -0.09876096248626709 -0.12095854431390762 -0.05413113906979561 0.006070087663829327 -0.20252953469753265 0.008347694762051105 -0.02798927016556263 -0.15900203585624695 -0.1715894490480423 -0.0988064557313919 -0.090561144053936 -0.04159766063094139 0.006876545492559671 0.07108462601900101 0.020194662734866142 -0.16396847367286682 0.00933641567826271 -0.004345624707639217 0.10146241635084152 -0.056608036160469055 0.0023475680500268936 -0.09384175390005112 -0.03079807758331299 0.07364864647388458 -0.064213827252388 -0.06836201995611191 0.0371856763958931 -0.09726390987634659 -0.12255369126796722 0.027480605989694595 0.14929166436195374 0.04278048500418663 -0.1065516322851181 0.07533551007509232 -0.03291567787528038 0.2343560755252838 0.06912581622600555 0.14658433198928833 -0.021975059062242508 -7.98488559667021E-4 -0.022139381617307663 -0.010727236047387123 -0.05396562069654465 0.24698825180530548 0.07496963441371918 -0.003992285113781691 -0.07268152385950089 0.13622742891311646 -0.06104779988527298 0.06601261347532272 -0.05935864523053169 -0.06689487397670746 -0.07928051054477692 -0.0017657848075032234 -0.12482868134975433 0.025287611410021782 0.15138135850429535 0.05574970692396164 0.03504015505313873 0.1030941978096962 -0.1095132827758789 -0.032747700810432434 -0.12023822218179703 0.1254897117614746 0.10436957329511642 -0.029102077707648277 0.08925275504589081 0.12652568519115448 0.012815408408641815 -0.10563261061906815 -0.05394016578793526 -0.029812144115567207 0.0859396830201149 0.07411758601665497 0.14246685802936554 0.07413287460803986 0.039562124758958817 0.211704283952713 0.10110293328762054 -0.11866145581007004 0.0022789924405515194 0.09255579859018326 -0.06469754129648209 -0.1477009803056717 0.035381119698286057 0.1967182755470276 0.05256236717104912 0.19980254769325256 0.2004946768283844 0.12213491648435593 -0.01948978379368782 0.1968929022550583 -0.06000863015651703 0.13316109776496887 0.07854388654232025 0.07350048422813416 -0.03879201039671898 0.0998014435172081 0.11448802798986435 0.12358888238668442 0.08542616665363312 0.0765095204114914 -0.01869085617363453 0.012767485342919827 0.07267645746469498 0.037139054387807846 0.034876469522714615 -0.0628192126750946 0.05074442923069 -0.02010883018374443 -0.044843465089797974 0.09650544822216034 -0.08226025104522705 0.06488080322742462 -0.1319480836391449 -0.10095267742872238 0.031061679124832153 -0.08663330227136612 -0.08690095692873001 -0.10065232962369919 0.004783294629305601 0.15061675012111664 -0.12377022951841354 0.19139692187309265 0.10778433829545975 0.18697980046272278 -0.00692308833822608 0.03931319713592529 0.1370316445827484 -0.14578206837177277 0.07645853608846664 -0.03355073556303978 0.09532587230205536 -0.07829617708921432 -0.03334605693817139 0.003596897702664137 0.03139755129814148 -0.05704948678612709 -0.080439992249012 -0.04380539432168007 -0.04828011989593506 -0.012318826280534267 -0.050458576530218124 -0.15473805367946625 0.031522639095783234 -0.017075248062610626 0.09709620475769043 0.06618214398622513 0.06421174854040146 -0.18894818425178528 -0.04747359827160835 0.07757880538702011 0.1611616164445877 -0.09316051751375198 0.005276343785226345 0.2539310157299042 0.13189859688282013 -0.12242656201124191 0.0441228412091732 0.0011415054323151708 0.008192835375666618 0.011163909919559956 0.01802506111562252 -0.005825964268296957 -0.007809985429048538 -0.03334017097949982 0.022160839289426804 0.048084743320941925 0.2248995155096054 -0.07064756751060486 -0.11154625564813614 0.0891064777970314 -0.11637744307518005 -0.027041956782341003 -0.05444677174091339 -0.09369470179080963 -0.046711377799510956 -0.12930667400360107 0.06439100950956345 -0.06110810488462448 0.20101705193519592 0.07265418767929077 0.032206032425165176 0.08789019286632538 -0.12743772566318512 0.0137867983430624 -0.1733335554599762 -0.015139744617044926 0.1019526794552803 -0.08096586167812347 -0.09231571108102798 0.06511122733354568 -0.1721770465373993 0.06254500895738602 0.013511125929653645 3.0874263029545546E-4 0.13589811325073242 -0.24222667515277863 -6.541088805533946E-4 0.048029303550720215 -0.1711658090353012 0.007955391891300678 0.04092033579945564 0.025160685181617737 -0.2266656905412674 -0.03266064450144768 0.08431337028741837 0.04423004016280174 -0.17079563438892365 -0.04844256862998009 -0.04064163193106651 -0.04871610924601555 -0.036559149622917175 0.0011175484396517277 0.07987633347511292 -0.15504148602485657 0.034677643328905106 0.009154733270406723 -0.06582366675138474 0.10211893171072006 0.11846545338630676 -0.03220544755458832 0.2076720893383026 -0.03799854591488838 -0.08214909583330154 -0.05236084386706352 0.003202884690836072 0.10092752426862717 0.005182672291994095 0.06404415518045425 -0.09684175997972488 -0.13732454180717468 0.05740863457322121 -0.17755939066410065 0.15462203323841095 -0.028073258697986603 0.03470979630947113 0.0384700633585453 -0.15076471865177155 0.06713709235191345 -0.07497142255306244 -0.11940038204193115 0.20436866581439972 0.21121641993522644 -0.0393737256526947 -0.10736120492219925 -0.08946965634822845 0.03398190438747406 -0.1618330031633377 0.014710833318531513 -0.01751701720058918
want -0.06306249648332596 -0.06024666503071785 0.06468914449214935 -0.07114499062299728 -0.05949300900101662 -0.003357675625011325 -0.37318095564842224 0.1971091777086258 -0.04684985801577568 0.26229023933410645 0.005498660262674093 -8.83850734680891E-5 0.06139988824725151 -0.1323467195034027 0.01568119041621685 -0.29194024205207825 0.0305491890758276 0.1350603699684143 0.022635482251644135 -0.04232547804713249 -0.009958339855074883 -0.05032176151871681 0.15429694950580597 0.02277003973722458 0.03759244084358215 0.03184825927019119 -0.07130733132362366 -0.02228202298283577 -0.09215905517339706 0.09258470684289932 -0.14271515607833862 -0.16398493945598602 -0.039589107036590576 0.18912819027900696 0.0033972086384892464 -0.022677071392536163 0.1785709112882614 0.18239079415798187 -0.029359521344304085 0.08171360939741135 -0.10795742273330688 -0.15690109133720398 0.014311348088085651 0.050196610391139984 0.09458748251199722 -0.09703145921230316 0.06219170242547989 -0.011521880514919758 0.07576299458742142 -0.07809536159038544 -0.07391141355037689 -0.06831111013889313 0.00821276567876339 -0.16193634271621704 0.025123456493020058 0.04107608646154404 -0.15647657215595245 -0.135679230093956 -0.15453727543354034 -0.14021863043308258 -0.04901132732629776 -0.06083844229578972 0.06750419735908508 0.08244677633047104 -0.17750674486160278 -0.04025641828775406 -0.048459701240062714 0.03690297156572342 -0.08932241052389145 -0.007272547110915184 -0.08004029840230942 -0.08829641342163086 0.06175713986158371 -0.0958385244011879 -0.05185709148645401 -0.03475714847445488 -0.05972618609666824 -0.23858310282230377 -0.03503948822617531 0.05834806337952614 -0.05247033014893532 -0.15127414464950562 0.04697664827108383 -0.06276977062225342 0.31515324115753174 0.15171924233436584 0.1286942958831787 0.10730940848588943 0.038235247135162354 0.06704781204462051 -0.05481892451643944 -0.02212430164217949 0.24952557682991028 0.08183294534683228 -0.003839499317109585 -0.007031094282865524 0.09714058041572571 -0.02582153119146824 0.09980158507823944 -0.04934614896774292 -0.028301015496253967 -0.09569589048624039 -0.09268564730882645 -0.09848778694868088 0.04078110679984093 0.20841717720031738 0.1406918317079544 0.048751506954431534 0.06240231171250343 -0.22006458044052124 0.011346174404025078 -0.13588131964206696 0.08749706298112869 -0.02002272568643093 0.045958153903484344 0.07952728122472763 0.16144968569278717 0.0974758043885231 -0.16741864383220673 0.031223272904753685 -0.04518694430589676 0.0711435079574585 -0.0016023610951378942 0.207722008228302 0.08145975321531296 0.045043475925922394 0.19297689199447632 0.19317129254341125 -0.2319115698337555 -0.08147739619016647 0.10718772560358047 -0.016140609979629517 -0.11653424799442291 0.03395957127213478 0.18622148036956787 -0.05056941136717796 0.21978341042995453 0.25707492232322693 0.18590740859508514 -0.09140939265489578 0.1545475721359253 -0.12216648459434509 0.16789141297340393 0.04827580228447914 0.10964443534612656 -0.07788441330194473 0.15836812555789948 0.12924771010875702 0.07961427420377731 0.11517366021871567 0.15212984383106232 0.04526865854859352 0.018568595871329308 0.053679242730140686 0.04301503300666809 0.05894525721669197 -0.07324002683162689 0.1199348121881485 0.10325871407985687 -0.10217098891735077 0.11562120914459229 -0.10702107101678848 0.037844058126211166 -0.05641089379787445 -0.19626444578170776 -0.08491892367601395 -0.1354871392250061 -0.10984306037425995 -0.13296744227409363 0.017733998596668243 0.18676801025867462 -0.2139737755060196 0.2798239588737488 0.053552065044641495 0.15838029980659485 0.041175518184900284 0.07611584663391113 0.024401044473052025 -0.17938333749771118 0.14066769182682037 -0.06590714305639267 0.17379359900951385 -0.108066126704216 0.021685132756829262 0.09969865530729294 0.12662124633789062 0.0027545299381017685 -0.0757167711853981 -0.0702727735042572 -0.0657811313867569 0.011851079761981964 -0.01599946618080139 -0.16383159160614014 0.11853711307048798 0.05865968391299248 0.11540570855140686 0.12287478893995285 0.14913854002952576 -0.20139092206954956 -0.050223588943481445 0.1391371190547943 0.1384674310684204 -0.08735181391239166 0.07594826817512512 0.22180598974227905 0.19491781294345856 -0.1572539508342743 0.03286993131041527 0.009265062399208546 0.004268932621926069 -0.002398716052994132 -0.055786412209272385 0.02487058937549591 -0.06464150547981262 -0.08398818224668503 0.011826894246041775 0.08819892257452011 0.309333473443985 -0.08885131031274796 -0.1652519553899765 0.12157827615737915 -0.1816626787185669 -0.09706491976976395 -0.1046566590666771 -0.06121594086289406 -0.10248347371816635 -0.08959780633449554 0.038481272757053375 -0.09527602791786194 0.21758335828781128 0.09635307639837265 0.04801773279905319 0.1377141773700714 -0.1533837765455246 -0.0184121485799551 -0.17780697345733643 -0.02945341169834137 0.1646864116191864 -0.04965190589427948 -0.06436169892549515 -0.031242692843079567 -0.1391311138868332 0.09049718081951141 0.011699319817125797 0.04376690834760666 0.1685931533575058 -0.14265190064907074 0.035982146859169006 0.003513334086164832 -0.06935609132051468 -0.034227825701236725 0.053559623658657074 0.1085333302617073 -0.1829294115304947 -0.02771100029349327 0.02768881618976593 0.013803208246827126 -0.21578525006771088 -0.04896802455186844 0.01573369838297367 -0.0090195182710886 0.049667976796627045 -0.020510656759142876 0.10859555751085281 -0.15328450500965118 0.11490032076835632 0.13471010327339172 -0.03199388459324837 0.11328732222318649 0.13621854782104492 -0.048525646328926086 0.2523729205131531 0.0903950184583664 -0.068069688975811 -0.1260470598936081 0.05573546141386032 0.06700549274682999 0.10950231552124023 -0.09475917369127274 -0.1392226368188858 -0.023116158321499825 -0.026031993329524994 -0.15080508589744568 0.21312546730041504 -0.08733468502759933 0.047527167946100235 0.06541944295167923 -0.2070368528366089 0.11890123039484024 -0.10011175274848938 -0.019884739071130753 0.31746765971183777 0.1401478499174118 -0.1266571283340454 -0.07537204772233963 -0.14505364000797272 -7.685843738727272E-4 -0.23063425719738007 0.014582081697881222 -0.07096926122903824
